%YAML:1.0
my_nn: !!opencv-ml-ann-mlp
   layer_sizes: !!opencv-matrix
      rows: 1
      cols: 3
      dt: i
      data: [ 300, 30, 36 ]
   activation_function: SIGMOID_SYM
   f_param1: 6.6666666666666663e-01
   f_param2: 1.7159000000000000e+00
   min_val: -9.4999999999999996e-01
   max_val: 9.4999999999999996e-01
   min_val1: -9.7999999999999998e-01
   max_val1: 9.7999999999999998e-01
   training_params:
      train_method: RPROP
      dw0: 1.0000000000000000e-02
      dw_plus: 1.2000000000000000e+00
      dw_minus: 5.0000000000000000e-01
      dw_min: 0.
      dw_max: 50.
      term_criteria: { epsilon:1.1920928955078125e-07, iterations:299 }
   input_scale: [ 2.0579537167750486e-02, -1.9802950859533486e-01,
       2.0579537167750486e-02, -1.9802950859533486e-01,
       2.0579537167750486e-02, -1.9802950859533486e-01,
       1.6970321093791953e-02, -2.4494897427831783e-01,
       1.6970321093791953e-02, -2.4494897427831783e-01,
       1.6970321093791953e-02, -2.4494897427831783e-01,
       1.6970321093791953e-02, -2.4494897427831783e-01,
       1.6970321093791953e-02, -2.4494897427831783e-01,
       1.4845938375350141e-02, -2.8571428571428570e-01,
       1.1582645202546548e-02, -3.9009474880274692e-01,
       1.0023086107855624e-02, -4.8224282217041214e-01,
       9.3702922818380222e-03, -5.4100178080045946e-01,
       8.5423003207685654e-03, -6.5759594922142917e-01,
       8.2806687966957993e-03, -7.1713716560063623e-01,
       8.0177230862655598e-03, -8.1009258730098255e-01,
       7.9124530086715078e-03, -8.7559503577091302e-01,
       7.9124530086715078e-03, -8.7559503577091302e-01,
       7.8782737862121335e-03, -9.0971765229468415e-01,
       7.8557321841133503e-03, -9.4491118252306805e-01,
       7.8445337006096180e-03, -1.0190493307301363e+00,
       7.8782737862121335e-03, -1.0992421631894100e+00,
       7.9587250581522797e-03, -1.1870513506545994e+00,
       7.8557321841133503e-03, -9.4491118252306805e-01,
       7.9124530086715078e-03, -8.7559503577091302e-01,
       8.7055910350822985e-03, -6.2828086243754322e-01,
       8.4015608672716648e-03, -6.8718427093627676e-01,
       9.1145245143671658e-03, -5.7008771254956891e-01,
       8.4015608672716648e-03, -6.8718427093627676e-01,
       8.1774788616324687e-03, -7.4754500159640214e-01,
       8.2806687966957993e-03, -7.1713716560063623e-01,
       8.0177230862655598e-03, -8.1009258730098255e-01,
       8.1774788616324687e-03, -7.4754500159640214e-01,
       8.4015608672716648e-03, -6.8718427093627676e-01,
       1.4845938375350141e-02, -2.8571428571428570e-01,
       1.2376878710312518e-02, -3.5729480050524820e-01,
       1.2376878710312518e-02, -3.5729480050524820e-01,
       8.8948651384621116e-03, -5.9914468951527800e-01,
       8.7055910350822985e-03, -6.2828086243754322e-01,
       8.5423003207685654e-03, -6.5759594922142917e-01,
       8.0177230862655598e-03, -8.1009258730098255e-01,
       7.9587250581522814e-03, -8.4242353917423207e-01,
       7.9587250581522814e-03, -8.4242353917423207e-01,
       8.2806687966957993e-03, -7.1713716560063623e-01,
       8.4015608672716648e-03, -6.8718427093627676e-01,
       9.3702922818380222e-03, -5.4100178080045946e-01,
       1.0023086107855624e-02, -4.8224282217041214e-01,
       1.0444510629164360e-02, -4.5226701686664544e-01,
       1.0444510629164360e-02, -4.5226701686664544e-01,
       1.0023086107855624e-02, -4.8224282217041214e-01,
       1.0023086107855624e-02, -4.8224282217041214e-01,
       8.2806687966957993e-03, -7.1713716560063623e-01,
       8.0177230862655598e-03, -8.1009258730098255e-01,
       8.0177230862655598e-03, -8.1009258730098255e-01,
       7.9587250581522814e-03, -8.4242353917423207e-01,
       7.8445337006096180e-03, -9.8130676292531638e-01,
       8.0177230862655598e-03, -8.1009258730098255e-01,
       9.1145245143671658e-03, -5.7008771254956891e-01,
       1.0954295162674777e-02, -4.2163702135578385e-01,
       1.0444510629164360e-02, -4.5226701686664544e-01,
       9.6697378727684229e-03, -5.1176631571915898e-01,
       9.3702922818380222e-03, -5.4100178080045946e-01,
       8.2806687966957993e-03, -7.1713716560063623e-01,
       7.9587250581522814e-03, -8.4242353917423207e-01,
       7.9124530086715078e-03, -8.7559503577091302e-01,
       8.0177230862655598e-03, -8.1009258730098255e-01,
       8.0902831452079830e-03, -7.7849894416152299e-01,
       9.1145245143671658e-03, -5.7008771254956891e-01,
       8.8948651384621116e-03, -5.9914468951527800e-01,
       8.8948651384621116e-03, -5.9914468951527800e-01,
       1.0023086107855624e-02, -4.8224282217041214e-01,
       9.6697378727684229e-03, -5.1176631571915898e-01,
       9.6697378727684229e-03, -5.1176631571915898e-01,
       8.4015608672716648e-03, -6.8718427093627676e-01,
       8.2806687966957993e-03, -7.1713716560063623e-01,
       8.2806687966957993e-03, -7.1713716560063623e-01,
       8.4015608672716648e-03, -6.8718427093627676e-01,
       8.0902831452079830e-03, -7.7849894416152299e-01,
       9.1145245143671658e-03, -5.7008771254956891e-01,
       8.8948651384621116e-03, -5.9914468951527800e-01,
       1.0023086107855624e-02, -4.8224282217041214e-01,
       1.0023086107855624e-02, -4.8224282217041214e-01,
       9.1145245143671658e-03, -5.7008771254956891e-01,
       9.3702922818380222e-03, -5.4100178080045946e-01,
       8.0177230862655598e-03, -8.1009258730098255e-01,
       8.2806687966957993e-03, -7.1713716560063623e-01,
       8.2806687966957993e-03, -7.1713716560063623e-01,
       8.7055910350822985e-03, -6.2828086243754322e-01,
       8.8948651384621116e-03, -5.9914468951527800e-01,
       1.2376878710312518e-02, -3.5729480050524820e-01,
       1.2376878710312518e-02, -3.5729480050524820e-01,
       9.1145245143671658e-03, -5.7008771254956891e-01,
       8.5423003207685654e-03, -6.5759594922142917e-01,
       8.4015608672716648e-03, -6.8718427093627676e-01,
       8.7055910350822985e-03, -6.2828086243754322e-01,
       8.0177230862655598e-03, -8.1009258730098255e-01,
       8.0177230862655598e-03, -8.1009258730098255e-01,
       8.4015608672716648e-03, -6.8718427093627676e-01,
       8.8948651384621116e-03, -5.9914468951527800e-01,
       1.0023086107855624e-02, -4.8224282217041214e-01,
       1.0023086107855624e-02, -4.8224282217041214e-01,
       9.1145245143671658e-03, -5.7008771254956891e-01,
       9.1145245143671658e-03, -5.7008771254956891e-01,
       8.2806687966957993e-03, -7.1713716560063623e-01,
       8.4015608672716648e-03, -6.8718427093627676e-01,
       8.5423003207685654e-03, -6.5759594922142917e-01,
       8.0902831452079830e-03, -7.7849894416152299e-01,
       8.2806687966957993e-03, -7.1713716560063623e-01,
       8.0902831452079830e-03, -7.7849894416152299e-01,
       8.2806687966957993e-03, -7.1713716560063623e-01,
       8.2806687966957993e-03, -7.1713716560063623e-01,
       8.7055910350822985e-03, -6.2828086243754322e-01,
       8.7055910350822985e-03, -6.2828086243754322e-01,
       9.1145245143671658e-03, -5.7008771254956891e-01,
       9.3702922818380222e-03, -5.4100178080045946e-01,
       8.5423003207685654e-03, -6.5759594922142917e-01,
       8.5423003207685654e-03, -6.5759594922142917e-01,
       8.4015608672716648e-03, -6.8718427093627676e-01,
       8.5423003207685654e-03, -6.5759594922142917e-01,
       8.1774788616324687e-03, -7.4754500159640214e-01,
       8.1774788616324687e-03, -7.4754500159640214e-01,
       8.8948651384621116e-03, -5.9914468951527800e-01,
       1.0444510629164360e-02, -4.5226701686664544e-01,
       1.0444510629164360e-02, -4.5226701686664544e-01,
       8.5423003207685654e-03, -6.5759594922142917e-01,
       8.8948651384621116e-03, -5.9914468951527800e-01,
       8.8948651384621116e-03, -5.9914468951527800e-01,
       1.0023086107855624e-02, -4.8224282217041214e-01,
       8.8948651384621116e-03, -5.9914468951527800e-01,
       9.3702922818380222e-03, -5.4100178080045946e-01,
       1.0023086107855624e-02, -4.8224282217041214e-01,
       9.3702922818380222e-03, -5.4100178080045946e-01,
       9.1145245143671658e-03, -5.7008771254956891e-01,
       1.0023086107855624e-02, -4.8224282217041214e-01,
       9.1145245143671658e-03, -5.7008771254956891e-01,
       9.1145245143671658e-03, -5.7008771254956891e-01,
       8.7055910350822985e-03, -6.2828086243754322e-01,
       8.7055910350822985e-03, -6.2828086243754322e-01,
       8.7055910350822985e-03, -6.2828086243754322e-01,
       8.5423003207685654e-03, -6.5759594922142917e-01,
       8.8948651384621116e-03, -5.9914468951527800e-01,
       9.6697378727684229e-03, -5.1176631571915898e-01,
       1.0023086107855624e-02, -4.8224282217041214e-01,
       1.0023086107855624e-02, -4.8224282217041214e-01,
       1.4845938375350141e-02, -2.8571428571428570e-01,
       2.0579537167750486e-02, -1.9802950859533486e-01,
       2.0579537167750486e-02, -1.9802950859533486e-01,
       1.2376878710312518e-02, -3.5729480050524820e-01,
       1.0444510629164360e-02, -4.5226701686664544e-01,
       1.0444510629164360e-02, -4.5226701686664544e-01,
       8.2806687966957993e-03, -7.1713716560063623e-01,
       8.8948651384621116e-03, -5.9914468951527800e-01,
       8.8948651384621116e-03, -5.9914468951527800e-01,
       8.8948651384621116e-03, -5.9914468951527800e-01,
       1.0023086107855624e-02, -4.8224282217041214e-01,
       2.0579537167750486e-02, -1.9802950859533486e-01,
       2.0579537167750486e-02, -1.9802950859533486e-01,
       1.4845938375350141e-02, -2.8571428571428570e-01,
       1.1582645202546548e-02, -3.9009474880274692e-01,
       1.1582645202546548e-02, -3.9009474880274692e-01,
       9.3702922818380222e-03, -5.4100178080045946e-01,
       9.1145245143671658e-03, -5.7008771254956891e-01,
       9.1145245143671658e-03, -5.7008771254956891e-01,
       9.6697378727684229e-03, -5.1176631571915898e-01,
       8.7055910350822985e-03, -6.2828086243754322e-01,
       8.7055910350822985e-03, -6.2828086243754322e-01,
       1.0023086107855624e-02, -4.8224282217041214e-01,
       1.0954295162674777e-02, -4.2163702135578385e-01,
       1.0954295162674777e-02, -4.2163702135578385e-01,
       2.0579537167750486e-02, -1.9802950859533486e-01,
       1.6970321093791953e-02, -2.4494897427831783e-01,
       1.6970321093791953e-02, -2.4494897427831783e-01,
       1.2376878710312518e-02, -3.5729480050524820e-01,
       1.1582645202546548e-02, -3.9009474880274692e-01,
       1.1582645202546548e-02, -3.9009474880274692e-01,
       1.0023086107855624e-02, -4.8224282217041214e-01,
       1.0444510629164360e-02, -4.5226701686664544e-01,
       1.0954295162674777e-02, -4.2163702135578385e-01,
       9.3702922818380222e-03, -5.4100178080045946e-01,
       9.3702922818380222e-03, -5.4100178080045946e-01,
       8.8948651384621116e-03, -5.9914468951527800e-01,
       1.3416216820195627e-02, -3.2274861218395140e-01,
       1.3416216820195627e-02, -3.2274861218395140e-01,
       1.3416216820195627e-02, -3.2274861218395140e-01,
       1.2376878710312518e-02, -3.5729480050524820e-01,
       1.2376878710312518e-02, -3.5729480050524820e-01,
       1.0444510629164360e-02, -4.5226701686664544e-01,
       1.0023086107855624e-02, -4.8224282217041214e-01,
       1.0954295162674777e-02, -4.2163702135578385e-01,
       1.0954295162674777e-02, -4.2163702135578385e-01,
       1.1582645202546548e-02, -3.9009474880274692e-01,
       1.1582645202546548e-02, -3.9009474880274692e-01,
       1.3416216820195627e-02, -3.2274861218395140e-01,
       1.4845938375350141e-02, -2.8571428571428570e-01,
       1.4845938375350141e-02, -2.8571428571428570e-01,
       1.3416216820195627e-02, -3.2274861218395140e-01,
       1.4845938375350141e-02, -2.8571428571428570e-01,
       1.6970321093791953e-02, -2.4494897427831783e-01,
       1.6970321093791953e-02, -2.4494897427831783e-01,
       1.4845938375350141e-02, -2.8571428571428570e-01,
       1.4845938375350141e-02, -2.8571428571428570e-01,
       1.4845938375350141e-02, -2.8571428571428570e-01,
       1.2376878710312518e-02, -3.5729480050524820e-01,
       1.3416216820195627e-02, -3.2274861218395140e-01,
       1.3416216820195627e-02, -3.2274861218395140e-01,
       2.0579537167750486e-02, -1.9802950859533486e-01,
       2.0579537167750486e-02, -1.9802950859533486e-01,
       2.0579537167750486e-02, -1.9802950859533486e-01,
       1.6970321093791953e-02, -2.4494897427831783e-01,
       1.6970321093791953e-02, -2.4494897427831783e-01,
       1.6970321093791953e-02, -2.4494897427831783e-01,
       2.0579537167750486e-02, -1.9802950859533486e-01,
       1.6970321093791953e-02, -2.4494897427831783e-01,
       1.6970321093791953e-02, -2.4494897427831783e-01,
       1.4845938375350141e-02, -2.8571428571428570e-01,
       1.4845938375350141e-02, -2.8571428571428570e-01,
       1.4845938375350141e-02, -2.8571428571428570e-01,
       1.6970321093791953e-02, -2.4494897427831783e-01,
       1.6970321093791953e-02, -2.4494897427831783e-01,
       1.6970321093791953e-02, -2.4494897427831783e-01,
       1.6970321093791953e-02, -2.4494897427831783e-01,
       1.6970321093791953e-02, -2.4494897427831783e-01,
       2.0579537167750486e-02, -1.9802950859533486e-01,
       2.8822657254840338e-02, -1.3867504905630729e-01,
       2.8822657254840338e-02, -1.3867504905630729e-01,
       2.0579537167750486e-02, -1.9802950859533486e-01,
       2.8822657254840338e-02, -1.3867504905630729e-01,
       2.8822657254840338e-02, -1.3867504905630729e-01,
       2.8822657254840338e-02, -1.3867504905630729e-01,
       2.8822657254840338e-02, -1.3867504905630729e-01,
       2.8822657254840338e-02, -1.3867504905630729e-01,
       2.8822657254840338e-02, -1.3867504905630729e-01,
       2.8822657254840338e-02, -1.3867504905630729e-01,
       2.8822657254840338e-02, -1.3867504905630729e-01,
       2.8822657254840338e-02, -1.3867504905630729e-01,
       2.0579537167750486e-02, -1.9802950859533486e-01,
       2.0579537167750486e-02, -1.9802950859533486e-01,
       2.8822657254840338e-02, -1.3867504905630729e-01, 1., 0., 1., 0.,
       1., 0., 2.8822657254840338e-02, -1.3867504905630729e-01,
       2.8822657254840338e-02, -1.3867504905630729e-01,
       2.8822657254840338e-02, -1.3867504905630729e-01, 1., 0., 1., 0.,
       1., 0., 1., 0., 1., 0., 1., 0., 2.8822657254840338e-02,
       -1.3867504905630729e-01, 2.8822657254840338e-02,
       -1.3867504905630729e-01, 2.8822657254840338e-02,
       -1.3867504905630729e-01, 1., 0., 1., 0., 1., 0., 1., 0., 1., 0.,
       1., 0., 1., 0., 1., 0., 1., 0., 1., 0., 1., 0., 1., 0., 1., 0.,
       1., 0., 1., 0., 1., 0., 1., 0., 1., 0., 1., 0., 1., 0., 1., 0.,
       1., 0., 1., 0., 1., 0., 1., 0., 1., 0., 1., 0., 1., 0., 1., 0.,
       1., 0., 1., 0., 1., 0., 1., 0., 1., 0., 1., 0.,
       2.8822657254840338e-02, -1.3867504905630729e-01, 1., 0., 1., 0.,
       1., 0., 1., 0., 1., 0., 1., 0., 1., 0., 1., 0., 1., 0., 1., 0.,
       1., 0., 1., 0. ]
   output_scale: [ 8.9547991294983801e+37, -8.5070591730234606e+37,
       8.9547991294983801e+37, -8.5070591730234606e+37, 1.,
       1.1709025760143879e-38, 8.9547991294983801e+37,
       -8.5070591730234606e+37, 1., 4.5738381875562029e-41,
       8.9547991294983801e+37, -8.5070591730234606e+37,
       8.9547991294983801e+37, -8.5070591730234606e+37, 1.,
       1.1709025760143879e-38, 1., 1.1709025760143879e-38, 1.,
       1.4012984643248171e-45, 8.9548001969936228e+37,
       -8.5070601871439418e+37, 8.9548001969936228e+37,
       -8.5070601871439418e+37, 8.9548001969936228e+37,
       -8.5070601871439418e+37, 1.2080433494166325e+00,
       1.1476411819458008e+00, 6.7171072708932982e+01,
       6.3812519073486328e+01, 2.7798176398026320e+04,
       2.6408267578125004e+04, 1., 3.7083603138718871e-33, 1.,
       1.9721522630525295e-31, 1.7299149473684210e+07,
       1.6434191999999998e+07, 1., 1.1755057013398485e-38,
       1.3518765098170231e+00, 1.2842826843261719e+00,
       1.2079881366930512e+00, 1.1475887298583987e+00, 1.,
       8.3871636725540411e-39, 9.0773568673684204e+10,
       8.6234890239999985e+10, 1., 8.3862780519245878e-39,
       1.0473684210526316e+02, 9.9500000000000000e+01,
       6.7105263157894740e+01, 6.3750000000000000e+01,
       5.2631578947368418e-01, 4.9999999999999994e-01,
       1.5847477894736845e+07, 1.5055104000000002e+07,
       1.3669487049705105e+00, 1.2986012697219849e+00,
       1.7299621052631579e+07, 16434640., 1.2080323068719161e+00,
       1.1476306915283203e+00, 1.0780875705886770e+38,
       -1.0241831920592432e+38, 1.3421052631578948e+02,
       1.2750000000000000e+02, 9.9813397557894730e+10,
       9.4822727679999985e+10, 1.3421052631578948e+02,
       1.2750000000000000e+02 ]
   inv_output_scale: [ 1.1167196332811731e-38, 9.4999999999999996e-01,
       1.1167196332811731e-38, 9.4999999999999996e-01, 1.,
       -1.1709025760143879e-38, 1.1167196332811731e-38,
       9.4999999999999996e-01, 1., -4.5738381875562029e-41,
       1.1167196332811731e-38, 9.4999999999999996e-01,
       1.1167196332811731e-38, 9.4999999999999996e-01, 1.,
       -1.1709025760143879e-38, 1., -1.1709025760143879e-38, 1.,
       -1.4012984643248171e-45, 1.1167195001578349e-38,
       9.4999999999999996e-01, 1.1167195001578349e-38,
       9.4999999999999996e-01, 1.1167195001578349e-38,
       9.4999999999999996e-01, 8.2778486424589215e-01,
       -9.4999999999999996e-01, 1.4887360878293843e-02,
       -9.4999999999999996e-01, 3.5973582787646473e-05,
       -9.4999999999999996e-01, 1., -3.7083603138718871e-33, 1.,
       -1.9721522630525295e-31, 5.7806310161156688e-08,
       -9.4999999999999996e-01, 1., -1.1755057013398485e-38,
       7.3971253493808420e-01, -9.4999999999999996e-01,
       8.2782269926720253e-01, -9.4999999999999996e-01, 1.,
       -8.3871636725540411e-39, 1.1016422672494376e-11,
       -9.4999999999999996e-01, 1., -8.3862780519245878e-39,
       9.5477386934673357e-03, -9.4999999999999996e-01,
       1.4901960784313726e-02, -9.4999999999999996e-01,
       1.8999999999999999e+00, -9.4999999999999996e-01,
       6.3101523576323343e-08, -9.4999999999999996e-01,
       7.3155634616265519e-01, -9.4999999999999996e-01,
       5.7804734390287829e-08, -9.4999999999999996e-01,
       8.2779243097347632e-01, -9.4999999999999996e-01,
       9.2756843440274680e-39, 9.4999999999999996e-01,
       7.4509803921568628e-03, -9.4999999999999996e-01,
       1.0018695129779249e-11, -9.4999999999999996e-01,
       7.4509803921568628e-03, -9.4999999999999996e-01 ]
   weights:
      - [ 6.1471028352172857e-03, -4.4589136052453543e-04,
          8.4379151587305292e-04, -1.6887217372200895e-03,
          -5.0681390502097428e-03, 2.6233167636782249e-03,
          -2.4244910767903900e-03, -3.9226165063484964e-03,
          3.0207773323053153e-03, 1.4569968869306298e-03,
          3.1571609199135364e-03, 3.0364322861606038e-03,
          -5.5851776736044094e-03, -4.6549216444669826e-03,
          -3.7429979702912788e-03, -8.8043377357035666e-04,
          2.6964921381751237e-03, -1.1133916282436606e-04,
          -5.3313389150733623e-03, 1.3798586075487924e-03,
          1.2868870275724263e-03, 9.0545503089587884e-04,
          1.2850862941587549e-05, 4.1830654539871878e-03,
          -2.1673714789731649e-03, 1.1699424473968342e-05,
          -4.1498843545147184e-04, 4.7853088371960645e-03,
          -5.6604305449686511e-03, -3.8603151150501621e-03,
          6.0281069913425342e-03, -9.4491962849817290e-04,
          -1.5879091683963856e-03, -2.2216424057210243e-03,
          -5.4471744458024158e-03, -2.4656048207116017e-03,
          -3.8758724638861750e-03, -4.7001151668003838e-03,
          2.5099815347493512e-03, -1.9715500478232882e-03,
          -4.6137396658259963e-03, -1.6327443617839290e-03,
          -5.9700896332265203e-03, 6.2420058234903563e-04,
          -6.2505579753550141e-03, -1.8743233467480162e-03,
          -4.7718398519437455e-03, 1.3616468932618486e-03,
          5.7227672318617851e-04, 5.1757606560881774e-03,
          5.5303924508470961e-03, -3.8795250744137182e-03,
          5.6991857930246605e-03, 5.5560589131537306e-03,
          2.6095635466213426e-04, -2.6604737518140429e-03,
          -2.0948583537763995e-03, 1.1836309817866437e-03,
          -1.5258472154569597e-03, 4.4413929678871009e-03,
          -1.9226132562199745e-05, -1.2102700314379586e-03,
          4.3876829231713436e-03, 1.1302029511419931e-03,
          -2.6451243649814825e-03, 2.3502023752257845e-03,
          3.0031341882988567e-03, 1.9126641746898226e-03,
          -3.3954262533920244e-03, -3.3506691956190510e-04,
          6.4301478495062741e-03, 6.2268079437747250e-03,
          -3.4238419576991352e-03, 6.5891999747160097e-03,
          -1.9067837741528983e-03, 1.3403867818764150e-03,
          3.4480481878445277e-03, 4.1398119514338772e-03,
          2.3130856930576355e-03, -4.4983087755275835e-03,
          6.7861770522079212e-03, -6.5689765356498966e-03,
          1.7481966135496952e-03, -4.7287983629844968e-03,
          5.8675806225397965e-03, 1.7405138150678962e-03,
          -1.2793362791661902e-03, -3.2575102469175563e-04,
          -1.9467394474632763e-03, -1.0766370446544426e-03,
          8.6201439870317728e-04, 4.6562171826835018e-03,
          -2.8008240391790827e-03, 2.9102792955037544e-04,
          1.2845505236414650e-03, -5.5154021495482696e-03,
          5.5691859427853757e-03, -4.5302328952344659e-03,
          -1.5747899942703896e-03, 5.1155599502912047e-03,
          3.8502928055489292e-03, -5.5863568562942540e-03,
          4.4112016900880327e-03, -2.4683600497672799e-03,
          -4.1582804585068699e-03, -1.7028372780264727e-03,
          -5.8927897516861550e-03, 4.3225920151982915e-03,
          -4.9973828112443728e-03, 4.7915810104289056e-03,
          -2.9479236445996804e-03, 6.5759830825883846e-03,
          -2.7544107711782907e-04, -7.0064891354199906e-03,
          2.4968866959839010e-03, 5.4976610032807308e-03,
          -4.9153936367346395e-03, -4.1161420719678663e-03,
          -4.6772473409271579e-03, 1.8479796541414804e-03,
          6.1315583592466269e-03, 2.8774262192272260e-03,
          -2.9759423923549377e-03, -9.2718975325790606e-04,
          -3.7586326860680188e-03, -3.0761648897466446e-03,
          5.8772305256317723e-03, 4.9899148659652945e-05,
          2.9817937340145378e-04, 1.2187149819019251e-03,
          -3.8036630653864503e-03, 2.5075979964574754e-03,
          -4.6964393666617827e-03, -5.0022209316673352e-03,
          2.7365931694896318e-03, -3.5084687370270959e-03,
          -1.6077861481679340e-03, 5.6121531855070983e-03,
          -2.4399919854915610e-03, 2.8527663147179743e-04,
          -1.6316349617182628e-03, 3.5142227066249370e-03,
          2.3085179684046164e-03, -3.7266070776945247e-03,
          -1.7224537840450391e-03, -3.5735477806582774e-03,
          2.9101459633800544e-03, 5.3499853539779188e-03,
          2.9579872559045762e-03, 6.1359918529049389e-03,
          -4.0094286987537048e-03, 2.4448764193934444e-03,
          -5.3608131435711236e-03, 4.2234747248188972e-03,
          4.9179597604043007e-04, 8.4358571301667217e-04,
          3.8954109955281644e-03, 4.7461623792857070e-03,
          -3.8810271837639949e-03, 4.7544870509556988e-03,
          3.2646464423003235e-03, 4.3157232570561425e-03,
          -4.1511535561915489e-03, 3.7123036175512462e-04,
          -4.0462191090168045e-03, 2.5556264260720024e-03,
          -2.0809553023564882e-03, 6.4294930952951586e-03,
          -5.0760405088597256e-03, 2.1886001048776766e-03,
          1.8040058611487780e-03, 2.8043874523119685e-03,
          -1.5724704913420884e-03, -4.3639662098765956e-03,
          5.5881720752153198e-03, 5.8377095359678022e-03,
          -1.3282800735372286e-03, -3.1557031697417638e-03,
          5.2038752525137687e-03, 4.4897876269505933e-03,
          -3.8895468374057179e-03, 2.5148355908487714e-03,
          1.5160578017844822e-03, 8.5863492213172953e-04,
          6.3945940005043309e-03, -5.9866460499440055e-03,
          5.8929615898359435e-03, -2.5180236799890732e-03,
          -8.4611785993643442e-04, -2.0540109363374752e-03,
          -4.9073676680030610e-03, 6.2803182001697115e-03,
          -4.7173577083231407e-03, -4.1158099396870814e-03,
          4.3426152728421163e-03, 4.7382198329539594e-03,
          -2.4271044700448878e-03, -5.2377150248807160e-03,
          5.1622688280657195e-03, -3.4782305942329165e-03,
          -4.9140132475044233e-03, -3.2163207748456672e-03,
          5.4281908439811465e-03, -2.2216056003500958e-03,
          1.2399245352208137e-03, 6.7412646145399114e-03,
          -2.8838910206892606e-03, 5.0078239287635667e-03,
          1.0211030200681110e-03, -5.8314680281271562e-03,
          1.0377466072923115e-04, 4.8578356651967098e-03,
          -3.7947376171132115e-03, 2.6056214316424334e-03,
          -4.5923763393208297e-03, 2.1911185884146409e-03,
          9.4608908291973607e-04, -2.8917268595741812e-04,
          -5.7107949773061760e-03, 6.7244901625913562e-04,
          -2.2807355420243025e-03, 3.6152023412837167e-03,
          -1.5415231344117490e-03, 5.1494579045343655e-03,
          -2.6814576824289732e-04, 3.6151459036746145e-03,
          -3.2474261638467958e-03, -1.6232277601059030e-03,
          -5.9391191797415243e-03, 4.7484610283608517e-03,
          4.2742094191067313e-03, 5.6623335722326374e-03,
          6.1206378848127621e-03, -8.3120439185534881e-05,
          1.3238880878177789e-03, 4.7207175810955860e-04,
          1.0568050039120730e-03, 1.0754223190103604e-03,
          -3.6720073193170061e-03, 6.2799130077476652e-03,
          6.3876003774064770e-03, -6.2506320647966341e-03,
          -4.8408104078765642e-03, 6.6652617892832200e-04,
          1.6221983199439574e-03, 4.4082772267234616e-03,
          -3.7586129776474805e-03, -2.4427457365112609e-03,
          1.0533023449252929e-03, -4.5986342432964610e-03,
          -5.1342517654260822e-03, -4.5443046735393136e-03,
          5.5569713299196176e-03, -4.8642249054841290e-03,
          -6.2843247976514909e-03, -4.3348461540663568e-04,
          1.9192164184318858e-03, 1.8434849452040622e-03,
          5.8158597878024288e-03, -2.6543858748069070e-03,
          2.8804729494004916e-03, -1.8297986469802503e-03,
          3.3667997110454636e-03, -4.6971465565467984e-03,
          -3.6894381405584561e-03, -2.2384118060598721e-03,
          5.2941736269478011e-03, -5.8054578612017262e-03,
          -1.6651076773911838e-03, -1.5294318466358373e-03,
          -2.8464470926065164e-03, -4.8953122266715068e-03,
          1.4932742736843223e-03, 1.0009337373622065e-03,
          1.7872860421303664e-03, -1.8788764030315183e-03,
          2.1393619833151105e-03, -4.6037049371412363e-03,
          -2.0330316433675799e-03, 3.3243463621617825e-03,
          3.2039490702545298e-03, -6.3518356745821281e-03,
          1.9607490748801979e-03, 2.4221853951976948e-03,
          -4.0282158925418357e-04, 6.6635268121277664e-03,
          -2.5824482535835203e-03, 1.6365454912142191e-03,
          -3.8523622720305463e-03, 1.6193371999634930e-03,
          2.0700631225209353e-03, 3.5939543680155102e-04,
          4.9725398972347290e-03, -4.1322265587319749e-03,
          6.1645289309089895e-03, -4.8558316435635442e-03,
          -3.8604739747618005e-03, 3.5480639607229281e-05,
          -5.0818884718910329e-03, 2.7305883411931882e-03,
          -6.4825074713598563e-04, 6.8103703204461822e-03,
          -3.5922679871910617e-03, 2.5351613042847191e-03,
          7.9446109856510171e-04, -5.3857519645960179e-03,
          7.6863446829402013e-04, 3.2560224169291153e-03,
          3.4965355392445347e-03, -5.3147384313213645e-04,
          -1.2312720468037309e-03, -1.9393642049132175e-03,
          1.3520518346113320e-04, 2.0280159659293804e-04,
          -2.4064366705232655e-03, 5.9797970766563846e-03,
          -5.6733311079548423e-03, 5.1932846450668539e-04,
          4.0047667069735239e-03, 2.4368289368429568e-03,
          -7.8513236898757188e-05, -2.1184266923153679e-03,
          4.5666624059089167e-03, 5.5874286103777581e-03,
          -2.4786489043045730e-03, 2.1102740731815818e-04,
          2.4111844158578731e-03, 9.1119327759903309e-04,
          -6.0277976988272544e-03, -6.1089375161782113e-03,
          -1.4178754542985626e-03, 2.4431999474259420e-03,
          -1.1822635317748457e-03, 3.1906798973041044e-03,
          -1.4731187377250037e-03, 7.7601380571557982e-05,
          -9.1219240874192739e-04, 1.9906583524361169e-03,
          -5.7806328737051160e-03, -6.8458256298475975e-03,
          3.1754636721421387e-03, 1.1247943539232112e-03,
          4.0957815930657117e-03, 6.4848337426467772e-03,
          -3.7440464928491040e-03, -3.6483268475674901e-03,
          3.6058507848199515e-03, -4.7157436549186823e-03,
          -6.0359387229310564e-03, -1.0793682648470007e-03,
          5.7456926338596054e-04, 4.6489439905462874e-03,
          5.7802396722215982e-03, -9.7177122648377571e-04,
          -3.3551800875952401e-04, -6.6403844914831233e-03,
          5.9414298214679169e-03, 5.9309103268751825e-03,
          -6.3317170175162963e-03, 4.1122723786116509e-03,
          -5.1175607674619093e-04, 3.0493558860846507e-03,
          5.7066950656431657e-03, 7.6543181989262808e-04,
          -2.1876953476084910e-03, 5.7415492904140056e-03,
          -4.5522515593008801e-03, 4.7749008283294618e-03,
          1.8477016405527029e-03, 2.1105568553076480e-03,
          -1.9656292421356024e-03, -1.4296407036047060e-03,
          3.0532010453425632e-03, 2.2724661388533441e-03,
          4.8085304842694146e-03, 3.8180823574723486e-04,
          -2.1632248629126709e-04, 1.8113050307334070e-03,
          -5.5827569317870628e-03, 3.9679138247653940e-03,
          8.5228999473789570e-05, -7.1409223893021782e-03,
          1.2159391526835588e-03, -2.6592604172731967e-04,
          -6.3672230962640774e-03, 5.3112843849792294e-04,
          2.0302373703173196e-03, -5.0138926751002796e-05,
          1.4270120395875965e-03, -8.7583781083262009e-04,
          -5.3814260967672946e-03, 4.3394792160233574e-03,
          -2.2389639044911184e-03, -1.0704651055080225e-03,
          3.6591485955130157e-03, -1.5233118692379304e-03,
          -3.6588957448499093e-03, -1.3902366392695091e-03,
          4.0272403975654872e-04, -6.0355563552980602e-03,
          -4.7956423763923376e-03, 2.1708453309538024e-03,
          4.9031322707622340e-03, -3.3654527702678058e-04,
          3.8833330597539662e-03, -4.3635151926353045e-03,
          -5.2440955796087098e-03, 6.0992339440893301e-03,
          1.4497269147921007e-03, 1.7414528911046260e-04,
          -1.5667614055898029e-03, 4.2529281368045568e-03,
          -1.0610761376143485e-03, 2.6098483179953866e-03,
          2.3479328743660020e-04, 5.6888209643417642e-03,
          -5.5393266829730503e-03, 9.1564075417823192e-04,
          -6.7436177146640134e-04, -1.0715729515614906e-03,
          -5.5431172508776912e-03, -1.3990961911826885e-03,
          -2.0218464862681988e-03, 5.6264833771095812e-03,
          -1.0228540612451792e-03, -4.8216017276114078e-03,
          -1.1443630573923994e-04, -2.7820990282321945e-03,
          -2.2623300910387494e-03, -8.0337186690976412e-04,
          2.7717423223955445e-03, 3.7110800901745938e-03,
          -3.1118651163725311e-03, 2.3610114545950631e-03,
          6.4232880310999075e-03, 9.8860643039542281e-04,
          3.1579316709121633e-04, -5.6501187546807606e-03,
          5.7790290909928476e-03, 1.9548359865952797e-03,
          6.5356851053058008e-03, -1.5404353407179605e-03,
          1.4196092402496280e-03, -3.4211959428948886e-03,
          3.8311520672656774e-03, 1.9388639210492589e-03,
          -1.7869606761320900e-03, 6.1993936004437963e-03,
          2.5640042724441683e-03, 3.5976449389117072e-03,
          4.1363391718725363e-03, 2.3253481210707880e-03,
          -3.7865931204895250e-03, -1.0403317691655418e-03,
          -5.3476939268553968e-03, -2.9691991981376890e-03,
          4.1350686467827987e-03, -4.6407130467866226e-03,
          5.7642090535286773e-03, 1.6466049868885575e-03,
          -1.3692496092904184e-03, -5.1913119419839861e-03,
          7.8759132507429553e-04, -3.5844518481756224e-03,
          1.4469411753891364e-04, 1.8668759306695927e-03,
          -3.9755322752367062e-03, 1.3525175783073622e-03,
          -5.3577563460642423e-03, 5.8659885219635704e-03,
          4.0155522308319858e-03, -1.0676035418106860e-03,
          4.3160153935770862e-03, -5.5916637672780165e-03,
          -5.8744408671036839e-04, -4.6902480028806100e-03,
          -6.1097458227327142e-03, -5.7735993767803430e-03,
          3.4745521229902201e-03, -5.6685236573965642e-03,
          -3.2378339519180568e-03, -5.1264385485273439e-03,
          -3.3125183950897075e-03, -1.8969974252068468e-03,
          6.3531089214217493e-03, 4.8467822629828300e-03,
          1.2081632660894233e-04, -4.4033252833221457e-03,
          1.7805016454076547e-03, -5.1604411437870526e-03,
          -5.6883373896236458e-03, -3.7946795918209620e-03,
          -5.7661718436855945e-04, 4.9408520845315416e-04,
          4.2391755006746306e-03, -1.1981559257745586e-03,
          -2.5693903422980648e-03, -5.1342750214875277e-03,
          -6.9054017377526416e-04, -3.9133414981178394e-03,
          1.5369006575926287e-03, 2.9531978859148730e-03,
          -3.7723399049314401e-03, 1.8557888802048800e-03,
          3.0503471080721347e-04, -2.7248354148948616e-03,
          -7.9236491483647355e-04, 4.2851827073618187e-03,
          -2.1001235565023752e-03, -6.1354587639064293e-03,
          -4.7042912140450571e-03, -4.9253840460116329e-05,
          3.2267835881838215e-03, 4.6516357891608030e-03,
          -6.9326716021711856e-04, -6.2724499518200198e-03,
          2.2043327017178373e-03, 2.3408591057684142e-03,
          -2.7951965888310779e-03, -6.7141385046684760e-03,
          4.3328069747142301e-03, -1.6391054009127705e-03,
          4.8033772322154051e-03, 3.7093805063240911e-03,
          -1.6225746022086071e-03, -6.9502954404389262e-03,
          2.5729087978395692e-04, 3.0380480546611586e-03,
          5.0707467355250264e-03, 1.9794776246206947e-04,
          -2.5035509411439299e-04, 2.8011930566773490e-03,
          6.0783821839583497e-03, -4.3656957734738563e-03,
          -4.9251737596183566e-03, 4.7983421755323514e-05,
          4.9247554948435822e-03, 4.7017691546969772e-03,
          -2.2356287306386797e-03, 3.6659580843880399e-03,
          -2.5706105610049531e-03, -4.8079944827914122e-03,
          3.3423589744170428e-03, 6.4890485401247547e-03,
          -9.4092472523738490e-04, 8.2170844532950416e-04,
          -4.2806079333008598e-03, -6.2390978945681868e-03,
          -3.2469958276349479e-03, -3.8367617514474773e-03,
          2.1672976856727771e-03, -1.9046188479579079e-03,
          2.2477250585815982e-03, 6.4708000388606418e-03,
          -5.3867910110527075e-03, 2.8579122941413803e-03,
          5.9952535693597597e-03, 5.3100442944309751e-03,
          -5.1067681700573261e-03, 3.1569269835634542e-03,
          -1.2534171380689768e-03, 5.2469179785941868e-03,
          -4.0583071499143315e-03, 5.4277234424807861e-03,
          -4.1752614729041286e-03, 3.0099902908913654e-03,
          3.4072852463070103e-03, -3.5686254299708182e-03,
          -1.1487410241286173e-03, 3.1881852257049864e-03,
          -3.9639164412168595e-03, 1.3922052115720291e-03,
          6.1479417262314791e-03, -2.1833449018471606e-03,
          4.1859045243244318e-03, -1.9594014871604890e-03,
          2.3170948084519256e-03, 1.5510751649712969e-03,
          6.3893966088881008e-03, 6.1532972338450525e-04,
          -6.6251941765410223e-03, -5.9271525913821912e-03,
          1.9757658204883114e-03, -1.0436950130104426e-03,
          -1.0154158098208085e-03, -3.4513601043577916e-03,
          3.0396975585094380e-03, -4.6260855494154041e-03,
          -4.2433997728285730e-03, -2.7915993938587838e-03,
          -4.1525268697472752e-03, -6.1462907821394994e-03,
          6.4904364104123010e-03, 2.8270904853177304e-03,
          -1.0257678907865324e-05, 1.0409912144596636e-03,
          3.3772448910062620e-03, 1.6948684541054108e-03,
          -3.3544869711131693e-03, -4.8669837179970568e-03,
          4.7845454117073577e-03, 6.2037120903013360e-03,
          5.1015926447780359e-03, -2.8212468528849346e-04,
          -4.7878105748477119e-03, 2.6254306405375087e-03,
          1.1569567292050683e-03, -3.7524330087999572e-03,
          -3.3241566050999862e-03, -2.3040513452628163e-03,
          5.4284139081961294e-03, 3.1399464184835241e-03,
          5.7861354186731122e-03, -2.8206866185163165e-03,
          -2.0845685633637738e-03, 3.3225277171766788e-03,
          -5.5272166277582392e-03, -6.1229847899960188e-03,
          5.4327829985402207e-03, 2.9766515447208152e-03,
          5.1897561494491607e-03, -1.6405132128645913e-03,
          7.3816662797970497e-04, 6.6869177860915310e-03,
          6.4071742650321784e-03, 5.6417998489852986e-04,
          6.2551598892512392e-03, -1.7135951559143440e-03,
          6.1175583857362749e-03, -2.7620509760979714e-03,
          5.3762644401442062e-03, 3.8666426877401374e-03,
          -5.2578484070671351e-03, -5.4610385707389618e-03,
          -1.6656537687003319e-03, -6.4805091488280338e-03,
          -4.4340720558670608e-03, -3.2597187630382671e-03,
          -2.0658013906273097e-04, 4.3023655270509860e-03,
          -4.8548778885470481e-03, -5.9530630546059384e-05,
          -8.4107114179081616e-04, 9.2080252888369072e-04,
          -5.1114584289086943e-03, 6.0522613744527368e-03,
          2.6556410954063458e-03, 6.3901757065948674e-03,
          2.4459272054172835e-04, 1.9816387009480565e-03,
          6.1352858652437812e-04, -3.4325919994685115e-03,
          -2.2900705342968143e-04, 4.4601712128093888e-03,
          5.2365974907881557e-03, 1.2080018525818920e-03,
          -2.5440502582094408e-03, 5.3009943006878547e-03,
          6.5353513404352304e-03, 5.2083859402440652e-03,
          1.7393862414338390e-03, -7.6657966694555746e-04,
          -4.3385612300644378e-04, 1.3168556151150689e-03,
          3.2401005032934782e-03, -2.6779681695495962e-04,
          -3.3392534163984183e-03, 2.5246020009659334e-03,
          1.2773990419816025e-03, 3.3472423932564385e-03,
          -4.5304173658693696e-03, -7.7227988233742422e-04,
          2.0124885473013520e-03, -5.3354891679976884e-03,
          -2.5635694629963139e-03, 6.6306961810907242e-03,
          -1.9636270899427229e-03, 3.4846189120445203e-04,
          2.6822506140781474e-03, 5.5763331744815318e-03,
          -4.0069155562181859e-03, 9.2069477157717661e-04,
          5.3898569912486189e-03, -8.0569239627466575e-04,
          1.7399895334436566e-03, 1.5509030417136282e-03,
          1.6607189367891762e-03, 6.0609517797269646e-03,
          -6.1443540669128905e-03, 5.6380039182906518e-03,
          -2.4700784187483139e-03, -4.1856780366829171e-03,
          -1.2742334079971654e-03, 2.2634586738417366e-03,
          2.5572053002098803e-03, -2.0226741294720359e-03,
          -4.5555739909196799e-03, -5.3821985126881250e-03,
          3.9003486217901572e-03, -6.6876268730396695e-03,
          -1.5270261970923569e-03, 6.2777709854561587e-03,
          5.7267060418459050e-03, -1.6519398360960962e-04,
          -2.4982482579114564e-04, -5.7922017304642857e-03,
          5.5413147047436656e-03, 1.3337897831852468e-03,
          -4.9983338181814284e-04, -1.5101798936764139e-03,
          5.1274532861838688e-03, -6.7893232383905051e-03,
          -6.1886335589204705e-03, 2.2579886683920272e-04,
          -4.6084564907005830e-03, -1.0621635089839853e-04,
          -2.4564933734866220e-03, 2.8956039400602441e-03,
          -6.6590616308570489e-03, -2.5408372965452669e-03,
          2.5393725845195112e-03, 6.2141887625569124e-03,
          -9.9729118101627898e-04, 4.8640949710048714e-03,
          -2.2804148621883330e-03, -4.5201882785891992e-04,
          2.2035781247077228e-03, -3.9782375482477273e-04,
          2.6988328315417989e-03, 1.9508504623089481e-03,
          -1.8619099528726557e-03, -2.7929378800649584e-04,
          -1.0977993575919242e-03, 2.8164684503015642e-03,
          1.7214432714487708e-04, 3.3395539309412112e-03,
          -6.4040088804872186e-04, 2.5569132103164015e-03,
          -2.9452182455536637e-03, 5.6634740212413975e-03,
          -4.5109580920008096e-04, 4.4004898464109765e-03,
          2.3705397017211708e-03, 7.2362560425850118e-04,
          3.2550117912649420e-03, -1.0666608827465176e-05,
          -3.7620999405823508e-03, -4.2895226411579675e-03,
          -6.4329042000713012e-03, -2.3893533277904388e-03,
          -5.1844115855735739e-03, 5.5848464925595893e-04,
          -6.4542273431606491e-03, -1.8245219945761516e-04,
          -6.1405155041288195e-03, 1.2693782608795287e-03,
          -6.2812137646100412e-04, 1.0654778191305913e-03,
          4.1053641633206645e-03, -5.7736832310793622e-03,
          2.1933416017424910e-03, 1.2183357028029728e-03,
          -5.5357832131702218e-03, -3.9228060705733779e-03,
          2.8645258999926951e-03, 3.2550266335652175e-03,
          -5.6679846470056548e-03, 4.8125727632533201e-03,
          -4.3700653211755976e-03, 1.9274790552679675e-03,
          8.1267588987790658e-06, -6.1376615005671866e-03,
          -3.8717822648764214e-03, -4.3337760567544615e-03,
          6.3923170559513883e-03, -3.5433778045664923e-03,
          2.7909625534262256e-03, -3.5477515421625696e-03,
          -1.4991660001330393e-03, -1.4898291195922419e-03,
          -3.5407148979324263e-03, -4.0526424043154227e-03,
          -8.1923991184813176e-04, -1.6550118395992932e-03,
          5.7869192298984620e-03, -4.8537927183046727e-03,
          -5.1692217442079278e-03, -3.2139376489325513e-04,
          -3.7104825899924201e-03, -2.0627274535242276e-03,
          5.2005313095869615e-03, 3.7237158696167257e-03,
          -3.0316057112721780e-03, -6.3732029066992024e-03,
          4.8321264937595809e-03, -3.6254211769149716e-04,
          1.8359632722785744e-03, 3.1111682088973388e-03,
          5.4359115446292036e-03, 1.0456841586957211e-03,
          2.1616183819745515e-03, -2.1117286627164444e-03,
          -2.5992477238735304e-03, -1.9944119593590043e-03,
          2.8900039718584834e-03, -6.2125335267509164e-03,
          -3.4063777895230617e-04, -2.0728809280606717e-03,
          1.7460709982698517e-03, -3.3974607519007770e-03,
          1.7785150953364389e-03, 5.0176240705826561e-03,
          -1.8213418054251315e-03, 2.4041673370653878e-03,
          -6.1655332229401791e-04, -2.0343550183980399e-03,
          -1.6335083306728891e-03, 3.6375580705348019e-03,
          1.2708680808103437e-03, -4.9353388084548621e-03,
          -2.7725250269562082e-03, -1.1070702459602879e-03,
          -4.9115783211640118e-03, -5.4795213468212872e-03,
          -3.6660134797744217e-03, -8.2505033912509500e-04,
          -5.2238952065879448e-03, -1.2111413171046912e-03,
          6.1964012065461767e-03, 3.6321148112279746e-03,
          6.8052846125828351e-03, -6.9757627817688692e-03,
          -5.9776799845331239e-03, -6.1144427761512807e-03,
          2.4418943221840342e-03, -1.6529101521091346e-03,
          -3.8246306701106496e-03, -2.6532527188611356e-03,
          1.7588090432781405e-03, -5.3126281471727217e-03,
          -4.2510032594234651e-03, 6.0185996371441269e-03,
          5.8210758255541313e-03, 2.5347210524476627e-03,
          2.8207897976719304e-03, 9.8940389682619645e-04,
          3.2617504948061404e-03, 4.0536960019166724e-03,
          5.9085544556296441e-03, 1.9332406562053877e-03,
          3.2780172360299953e-03, -4.4594406684555481e-03,
          -2.3322123645696503e-03, 6.2384426474702565e-03,
          -8.6079190121940343e-04, 1.7993797758582132e-03,
          -2.6836610873738542e-03, -1.1332053621863256e-03,
          4.9267864912510622e-03, -5.9069781444466831e-03,
          5.3080364485970904e-03, -5.2239075579462802e-03,
          -6.9061783197882738e-03, -6.7665731456855779e-03,
          5.9522350403877385e-03, 1.3290051371554212e-03,
          -5.9408831485145558e-03, -2.0820231934437230e-03,
          6.4543888769663443e-03, -3.5010995005309558e-03,
          -4.2144475571886100e-03, -1.1595277441050890e-03,
          1.3929592105004782e-03, 3.0313340745659841e-03,
          -2.1731372766518257e-04, 1.3048642143947276e-03,
          -6.5404814953575431e-03, -5.0521371802815136e-03,
          3.3903770412962672e-03, -6.0739861885316590e-03,
          -6.1603875502307557e-03, 5.3942249062531875e-03,
          -4.5662516800782527e-03, -2.5306817326235498e-03,
          4.5637327572651950e-03, 6.5426774084637587e-03,
          -1.4610286997710480e-03, -5.0617425102388834e-03,
          4.9948881619619372e-03, 4.5784821942934113e-03,
          6.4109196728305527e-03, -5.6057355329925567e-04,
          6.0754427887202925e-03, -6.5061340156659202e-04,
          1.5811898636754928e-04, 4.5657612822622906e-03,
          5.3018502217752218e-03, -4.3142955260347914e-03,
          2.9779521806031330e-03, -2.0078831776828079e-03,
          -4.4451920515068242e-05, 6.5360904991645314e-03,
          -4.7101238863569359e-03, 4.1434597811900262e-03,
          2.9016813110397601e-03, -5.3830228646046217e-03,
          6.3914814973647744e-03, -5.6397477671081787e-03,
          -6.2082841150568144e-03, -5.1620198081304726e-03,
          3.4874985158729185e-03, -4.2132679997977369e-04,
          3.8961727543024840e-03, 4.4720928344962356e-03,
          -4.9880149989044806e-03, -1.1266199666141547e-03,
          -2.5419603786566037e-03, 8.9119450252111282e-04,
          2.9496501353599184e-03, 5.4019335309476585e-03,
          -3.6528042493389609e-03, 5.4625701332755320e-03,
          -4.9577384575096453e-03, -6.6712730626054583e-03,
          2.0482474853953680e-03, 1.0987791170771065e-03,
          5.2494968969939012e-03, -6.7385001896679280e-04,
          2.7829901837858198e-03, 3.4997754909469243e-03,
          -5.7259831328709066e-03, 6.2352937263088161e-04,
          -1.3976388079449203e-03, -2.1244236764414318e-03,
          -3.7457237005769405e-03, -1.7006333799304979e-03,
          -2.7055455553622704e-04, 3.9921284122157738e-03,
          -1.4722004737423796e-03, 5.9876734898287000e-03,
          -4.8336059202267969e-04, 1.7664093794082731e-03,
          -6.0831256406768015e-03, -2.2260477409045978e-03,
          -3.0856384993105525e-03, 6.9119177482325879e-03,
          4.5171289142260729e-03, 5.2970785477194108e-03,
          -1.2573050623021261e-03, -4.5599207300658174e-04,
          -2.0031226900813180e-03, 3.3693989280222446e-03,
          -1.1031087635208587e-03, -3.8713413534833288e-04,
          1.9346744675070398e-03, -3.0532984293058659e-03,
          -3.8172739277620355e-03, -6.2134778472119363e-03,
          -3.8637650078976755e-03, -2.1948854637032240e-03,
          4.4030800231835074e-03, 3.0843408297048505e-03,
          -2.6162650883302090e-03, -3.0533593166206480e-03,
          -4.7841106073636380e-03, -3.7660717866722223e-04,
          -2.0151515775596136e-03, 5.8803332425016799e-03,
          4.5293370167011696e-03, -2.8976240229168200e-03,
          2.4414300305087701e-03, -5.4395452486041803e-03,
          -5.4868194082623115e-03, -3.7925009474422664e-03,
          9.3475305784346773e-04, -4.4131783313339709e-03,
          -4.3280078510738859e-03, -4.8887180923693312e-03,
          -3.7204534817769598e-03, 1.6884208650546700e-03,
          3.7883585161131747e-03, 2.7832849055165233e-03,
          -5.3880162414572845e-03, -1.8809155734933411e-03,
          -6.2634463618449201e-03, -5.1712297791470683e-03,
          -1.0448150302140287e-03, 3.7845543457086833e-03,
          -4.1180551162002020e-03, -3.0549976908096107e-03,
          -2.9433367828154149e-03, 1.5439780855640473e-03,
          5.8040194788263114e-04, 3.3007005153296671e-03,
          -5.5048355322936280e-03, -1.6279767269504911e-03,
          6.9714560086558928e-03, -5.1564906588172201e-03,
          2.9746838997030821e-03, -3.9819137365487414e-03,
          2.3102741870271544e-03, -7.4114242577795605e-04,
          4.0053943573843268e-03, -6.5023838970703577e-03,
          1.3354755865668279e-03, 4.2186092577934471e-03,
          2.5080465305134803e-03, -3.1819275047820007e-03,
          -5.8886504606266181e-03, -6.3319956180916577e-03,
          -3.4925271462592777e-03, -8.7295138962965001e-04,
          1.6444649544634859e-03, -1.0345357570987891e-03,
          -1.5849229841231414e-03, -6.8868552354864792e-03,
          4.3814160630447491e-03, 5.4434202694518454e-03,
          -1.6413963836462570e-03, -5.3913065821793848e-03,
          2.9327309300111472e-03, 4.3766575622554895e-03,
          -5.9761896200970846e-03, -3.5016344385068840e-03,
          2.4184651563036075e-03, -3.3605664690833366e-03,
          1.7585904804332051e-03, 5.0370082843011919e-03,
          -2.1693746364157382e-03, 1.8022927984991570e-03,
          7.5006797623362691e-04, -9.3877260025125987e-04,
          -3.6698745711172551e-03, -2.1321413914215264e-04,
          -1.7857026743191943e-04, 5.4851395360127437e-03,
          4.2739344719951982e-03, -6.2569156554839961e-03,
          1.5655441988732875e-03, -4.9504288096467513e-03,
          5.3979033337099623e-03, 3.5584291340376327e-03,
          2.8505346649682975e-03, -5.8241738169136489e-03,
          -4.7799703698862281e-03, -3.4741443969987865e-03,
          -3.8494178319722502e-03, 4.1717133818357415e-03,
          6.1535535724622297e-05, 3.9039283743637571e-03,
          5.3487402816611010e-03, -3.3906626659184897e-04,
          -3.6799004461791815e-03, 6.6773637738968255e-03,
          -2.1629831862193653e-03, 5.5986525298745010e-03,
          5.7221981416029008e-04, -1.7132749096073342e-03,
          -3.3239600632647406e-03, 6.3471251970634015e-03,
          -3.0503055399802334e-03, 6.3305109063591519e-03,
          4.6332652627794711e-03, -5.2780810779281115e-03,
          -4.0604179705314939e-03, 2.1273228196616520e-03,
          -5.5568796071632717e-03, 2.1388115599252958e-03,
          -4.9429666474764861e-04, -6.4723822691178916e-03,
          -7.9496786081096065e-04, -2.9955539049458511e-03,
          -5.2180136561113099e-03, -2.8273430411730467e-03,
          -1.7263982790844067e-03, -1.3161908773076748e-04,
          3.6095659981184029e-03, -2.2625723796831690e-03,
          -8.0577681728210692e-04, -6.6242171569962051e-04,
          6.1193718263960247e-03, -1.8903644765587268e-03,
          -2.7703329063077237e-03, 2.7763523952846910e-03,
          4.3905300490618208e-04, -3.7429294768484556e-03,
          5.9316127657167152e-04, -1.3984909532545721e-03,
          5.2429503519326459e-03, -5.2089886492256445e-04,
          4.6849085436813515e-03, -2.7304881937320630e-03,
          1.8728608391439024e-03, 1.4193906939629986e-03,
          6.1569021108771041e-03, -4.1406115647880026e-03,
          -2.7448519243915446e-03, 5.5992993615521869e-03,
          4.6757481613201477e-03, 2.4801896592889132e-03,
          5.5636558386601333e-03, 3.0290690088769006e-03,
          6.1001624392660061e-04, 3.3588547079411268e-03,
          1.1968453811852121e-03, 5.8355669423073393e-04,
          5.1588679780619926e-03, 7.2395814200267559e-04,
          -5.2227528785070820e-03, 2.9830683137840566e-03,
          -2.3814684308657249e-03, 2.0806269706920475e-03,
          -1.7585589287739080e-03, 6.1054585940379406e-03,
          -4.0866937958918114e-03, 4.8758151649694837e-03,
          -2.8430356894207478e-03, -5.8432830803295003e-03,
          -3.3668633431470723e-03, 4.5008707807762342e-03,
          -5.1845611845981613e-03, -2.0831576243139035e-03,
          -4.7020635987539390e-03, 3.2652338051345270e-03,
          -2.8664421812355607e-03, -2.0595120342548250e-03,
          -5.6333068360443477e-03, -3.9499075379810268e-03,
          2.7832138654304401e-03, 3.3668965895563914e-03,
          -2.8517515015593492e-03, 6.4100110276273659e-03,
          4.3196169059345410e-03, -4.9719949204186931e-03,
          -2.2164927142823677e-03, -8.0405591535020180e-04,
          -4.5194204066601193e-03, 4.6000537897240533e-03,
          2.2384350970947459e-03, -4.1271373596091301e-03,
          -3.5222720471483793e-03, -2.8651628241062829e-03,
          3.1174010560246338e-03, 2.7680209175529776e-03,
          6.3333951457319798e-03, -5.7071778513457269e-04,
          -4.1171600920355544e-03, 3.9495493338864776e-03,
          -3.4749247903230768e-03, -5.4563192363167308e-04,
          5.7733027481220618e-03, -2.4140833617941420e-03,
          2.3136667147952298e-03, -5.7422580008707766e-03,
          2.8990295413229765e-03, -2.3198370930611559e-03,
          3.7563040059510173e-03, -1.0170472960875985e-03,
          1.1953229425894841e-03, -1.8355199291906011e-03,
          -2.5458239389728240e-03, 4.8678515171050272e-04,
          2.4274067702487645e-04, 2.8483429917767157e-03,
          6.5104076223533374e-03, 2.8435568407892682e-03,
          -1.6897042709716424e-05, -2.3756395316913313e-03,
          3.0329298483834188e-04, -9.9754805228220267e-04,
          3.0800765694344273e-03, -4.1475240910713342e-03,
          -4.8180022380674668e-03, -1.4324713151630183e-03,
          -9.1151837722652960e-05, -3.7369726789815922e-03,
          -1.4162335030018316e-03, -4.4982111527841945e-04,
          5.5040700523335418e-03, -6.9766930757576033e-03,
          1.7526303983408013e-03, -2.1611149100975603e-03,
          -4.8663564773051516e-03, 1.9095090357178024e-03,
          -3.0837585726133264e-03, -4.5286253638265328e-03,
          4.7715993810583590e-03, 5.5117698754342768e-03,
          4.0140572322890271e-03, 5.2763742657446168e-03,
          3.0641818393833645e-03, -7.0528685879694582e-03,
          1.3700628315254624e-03, 1.7614541436387474e-03,
          3.3193647521408093e-03, 1.7501774372200274e-03,
          4.2674962531360052e-03, 4.8112280024954820e-03,
          -5.9225665908038691e-03, 5.2119566344333902e-04,
          -4.4058958825443197e-03, 9.0300316503781316e-04,
          -5.1118230564882990e-03, 2.6315248414044813e-03,
          3.4093589152864967e-03, 4.0042806305352393e-03,
          -1.1617576968980400e-03, -1.5135964080446535e-03,
          6.2659792022166797e-03, -1.0570071809739591e-03,
          5.8109243765475946e-03, -2.4280198030023487e-03,
          -5.1662209423019778e-03, 6.4666148857557750e-03,
          3.0294400303108753e-03, -2.8416957780577506e-03,
          -1.3863789574594613e-03, -1.4735471373924630e-03,
          -1.5261578092975623e-03, 1.8691194963668606e-03,
          5.6357172656493152e-03, -2.5416576644625277e-03,
          -4.9769794364135766e-03, -6.0984309398521624e-03,
          -3.1570367063237892e-03, 1.7713837126643631e-03,
          -4.2779277215512449e-03, 3.3091132866523410e-03,
          -6.0326973206831277e-03, -6.3114728836176810e-03,
          3.5169322980255208e-04, 5.7781685708477252e-03,
          1.7006117750369687e-03, -5.1133609694886178e-03,
          6.6020566981384275e-03, 4.7494490818246922e-03,
          4.4359414064389577e-03, -3.4991470346187607e-03,
          4.4320925209049462e-03, 3.8704354483954716e-03,
          3.4936364728242850e-03, 4.8461543436539301e-03,
          3.5365726164399585e-03, 1.1985928881454646e-03,
          2.9375361433579363e-03, -4.0032682823504069e-03,
          -6.3273297860906835e-04, 4.0667498133633434e-03,
          -2.2060948896202720e-03, -5.7670623629217706e-03,
          1.3925651735102863e-03, 6.9301871079732128e-03,
          -5.7748042057934545e-04, 1.5281533577737201e-03,
          1.6980432571596388e-03, 4.6225551597116957e-03,
          -4.5971130649948800e-03, 3.6169524376170807e-03,
          3.1199369064865686e-04, 3.2006024156589923e-03,
          5.3743747634864229e-03, -4.9078337201541727e-03,
          -2.0742311639917700e-03, -4.9877630672427826e-03,
          -1.9102576029588196e-03, 2.6345145507863515e-03,
          -4.5899927957131718e-03, 6.1918769555852253e-03,
          -4.3186553342975361e-03, 3.2660553190182132e-03,
          5.9674839156889578e-03, 5.8586027465221914e-03,
          -5.5633288101205013e-03, 6.7404251544869878e-03,
          1.8300154283939923e-03, 5.9441288766158161e-04,
          5.9494216720201998e-03, -1.9565213657124722e-03,
          1.4141800804800854e-03, 3.5987571321662408e-03,
          3.5499866913519923e-03, -2.6538131675385608e-03,
          -3.1256511100672918e-03, -5.1595603725864674e-03,
          -2.1723137886388707e-03, 5.0933191643813391e-03,
          5.3767381336882842e-03, 2.8835638443888904e-03,
          -1.2861838547255165e-03, 3.5963734568978697e-03,
          3.6759707756470646e-03, 2.0025951273767954e-04,
          1.3639008916139109e-03, -5.3505129295951049e-03,
          -3.8944154003677580e-04, -2.0931535998323148e-03,
          2.6747112792034893e-04, 3.0513038349066395e-03,
          4.4538090738885398e-03, 2.3767876625011928e-03,
          -1.5309073690905690e-04, -3.8542173849209606e-03,
          -1.9876387287109389e-04, -2.8377148114957138e-03,
          -2.1623038591535461e-04, -1.5235357551666446e-03,
          -1.5333140313792627e-04, -4.2666948479257172e-03,
          3.2050849812254403e-03, 8.1557884219189399e-04,
          7.5319844423266905e-04, -1.0428413473554117e-03,
          -1.0809461624324101e-03, 2.7906817347570475e-03,
          3.2228115837868348e-03, -6.8617684233987100e-03,
          -3.8181707924462146e-03, -2.5728439435132198e-03,
          -5.0183709605504711e-03, 5.6097194463674040e-03,
          3.4251228336719614e-04, 2.2316593790656832e-04,
          -5.6919718661267446e-03, -2.3241321020679700e-03,
          -1.0993090135848849e-03, 3.8063938739213757e-03,
          -2.7196933920141876e-03, 3.0810706245362912e-03,
          -5.3450392408422821e-03, 2.8576781804326083e-03,
          -4.1557153977654039e-03, -3.1527929429652230e-03,
          3.8435726022375228e-03, -1.9014736064612702e-03,
          3.1523200478862212e-03, -4.1016332184665525e-03,
          1.0373835776582179e-03, 4.1469480736111199e-03,
          -4.5245372904536146e-03, -2.1927575532435313e-03,
          7.3232125550684460e-04, -1.0921651372207818e-03,
          -1.1106721524144617e-04, -5.2841767008831890e-03,
          -1.9786453272451535e-03, -3.3012593355763529e-04,
          4.3966479870456493e-03, 2.5549233880661124e-03,
          -5.1684105296128293e-03, 6.2973421226038022e-03,
          4.6942312873644778e-03, -5.9707737582249338e-03,
          -5.6788460657295208e-04, -1.9198359848437679e-03,
          -5.3673695901014029e-03, 1.7924248246844858e-03,
          -1.9644598011838302e-03, -4.1886873680907662e-03,
          -5.1602213923631242e-03, -4.1562674862978041e-03,
          -3.4045418559730308e-03, -1.3326487547621465e-03,
          -1.2063835230823557e-03, 3.1049370249426160e-03,
          3.8997092749114663e-03, -2.0896387014313466e-03,
          -6.1488417460966744e-03, -1.9701073038281425e-04,
          -1.1704493124824007e-03, 3.5658338735545846e-03,
          2.7014292647370985e-03, -3.2650625651032814e-03,
          6.6774399093817785e-03, -2.3806260512448892e-03,
          6.5529290890433299e-03, 5.1370195443839247e-03,
          -6.5960050497423945e-03, 4.3734254990035019e-03,
          -5.5958309764314205e-03, -3.7130362301211885e-03,
          9.8563407891611061e-04, -6.0635068063527118e-03,
          4.5272235695145116e-04, -1.6009962564799199e-03,
          4.0539527909521453e-03, 4.3182445980909350e-03,
          -1.2157374951639036e-04, 2.0942621001573212e-03,
          2.6045242014607933e-03, -5.1041036082264228e-03,
          2.4486425324866387e-04, 4.7308324658723745e-03,
          -3.0996558814322941e-03, -5.5376386821631022e-03,
          -2.8814024799085980e-03, -4.1708057777807206e-03,
          -5.5898048126961737e-03, 3.2273539032989869e-03,
          1.0123114644280968e-03, -4.6037021247454183e-03,
          -3.9701598847954279e-03, 2.7040355435004079e-03,
          1.8322956121635805e-03, 1.7814243469414137e-03,
          -5.5308023587736059e-03, 5.7288169097866101e-03,
          4.9866686764000381e-03, 1.7357112467925708e-03,
          -6.3750112242900144e-03, -2.0527996576969322e-03,
          -4.2440833187894367e-03, 2.3669655929999013e-03,
          6.2436863866188012e-03, 2.7670496575718175e-03,
          1.1361078881835947e-03, -1.4118585116359111e-03,
          -9.7454287262922854e-04, -5.7501894147930300e-03,
          -4.7884164861280581e-03, 2.2893241980055309e-03,
          -6.0682476712341244e-03, -7.3745319020606683e-04,
          -3.6173534367494051e-03, 3.1463932331637070e-03,
          -3.2654643873449300e-03, 9.0865382399799629e-04,
          3.8868393854734418e-03, -6.4809942369612036e-04,
          4.9776082197852678e-03, -4.6862184871963898e-03,
          -4.0174336623532035e-03, 6.8686848734271118e-03,
          -4.0611121742118970e-03, 4.3322136592589891e-03,
          -9.0235664695347635e-04, -5.4446762819324859e-03,
          5.1132737464847765e-03, 4.4871232597466122e-03,
          -4.2656950628380177e-03, 6.2508803066567420e-03,
          -5.9032806094333860e-03, -6.3486216491232365e-03,
          -3.3706716969756499e-03, 4.3599320388189016e-03,
          -4.4406118064594406e-03, -2.3663972072294394e-04,
          -2.0960666554675905e-03, 3.2314559589671538e-03,
          5.6229725379054315e-03, -1.1025099968973327e-03,
          -2.4076347503183028e-03, -1.5332104106806552e-03,
          3.7294042675732894e-03, -2.9612300706413166e-03,
          4.3900407311867409e-03, -6.0206096806010041e-03,
          -6.3270705651173823e-03, -3.9209034979882044e-03,
          -3.7155276645256755e-03, -4.8590022697253422e-03,
          -4.6809714734228243e-03, -5.1135019143725823e-04,
          8.5983630967813166e-04, 4.8670923769460863e-03,
          -2.8016149090255493e-03, -2.8047261012128758e-03,
          3.6658477778089664e-03, -3.9387153157509078e-03,
          2.8867671381693086e-03, 1.7997346784617097e-03,
          1.5825141056097110e-03, 5.7259250503511666e-03,
          -6.9219377787201671e-04, -2.6763189892375383e-03,
          6.4095291363544301e-03, 3.5509532479591732e-05,
          -3.4227771134311708e-03, 5.4785432047744565e-04,
          5.1510753564472170e-03, -1.1534913045060271e-03,
          5.7266898519946763e-03, -9.1352640582383375e-04,
          5.5774411461047616e-04, 6.2892248494645362e-04,
          -4.9682867018676392e-03, -4.5949309389596692e-03,
          -5.3974211197244009e-03, 2.6065449983171786e-03,
          -5.1697834911495514e-03, -6.3237533231886413e-03,
          -6.6224624491720285e-04, 5.7104986106803991e-03,
          6.8036696529805507e-03, -9.0317896902356606e-04,
          -4.6700530974161276e-03, -6.8625019671800574e-03,
          1.2919261111699468e-03, 4.3602853410600511e-03,
          -4.0173781860317424e-03, 5.0987163227456519e-03,
          6.0335014029186060e-04, 6.7165579194754747e-03,
          2.2580683638792299e-03, 2.3734214618438311e-03,
          -4.0034512793526503e-03, -4.2024128338924811e-03,
          7.9351364675337474e-04, 4.5159898996563388e-03,
          4.5338732743297827e-03, 4.0031305399131660e-03,
          3.5819906144838511e-03, 2.5999984313823258e-03,
          -3.5622683713463295e-03, -2.5363768672092319e-03,
          4.0632401950706949e-03, -2.6705074150449939e-03,
          -1.7878258461697502e-03, 2.2634852464728170e-03,
          -2.1368185861683018e-03, 1.9061858170834828e-03,
          1.6773044724322980e-03, 1.0881942984083677e-03,
          9.3670118784829818e-04, 4.3201221096032317e-04,
          -9.1239375979665588e-04, 4.3896298703207416e-03,
          4.8983469051701693e-03, 4.4212183284900800e-03,
          1.7455926641877968e-03, -3.5150093287913495e-03,
          -2.7809012088881487e-03, -4.5415216103836843e-03,
          -3.2151037779142196e-04, 2.0401585131943575e-03,
          4.4062756119277562e-03, -6.5793785184727169e-04,
          -1.3609926572582223e-03, 3.3254453310420078e-03,
          1.8819717095704940e-03, -3.0338777443445729e-03,
          -1.5128706212664360e-03, -4.8206533611189241e-03,
          3.4887605342574382e-03, -2.8887990192368973e-03,
          5.4679540134884037e-03, 5.1718153818746584e-03,
          -3.9230519123834573e-03, 2.8933262134034142e-03,
          -4.9928085666369566e-03, 2.7119927843473860e-03,
          -5.5084420622273644e-03, 1.9713548342788173e-03,
          -4.5761856513456693e-04, -4.7328761445714134e-03,
          3.5028346269298915e-03, -4.7663577915430192e-03,
          -2.8876581138027706e-03, 1.7778091261348862e-03,
          3.1597876951598059e-03, -3.7084075445551804e-03,
          4.8178688578116415e-03, -1.2853215292209935e-03,
          -1.7424109346514199e-03, -6.1253777988651466e-04,
          4.6302581725672790e-03, -6.4949900723388319e-03,
          -2.9587919148211456e-03, 2.5676720217430110e-03,
          -2.0342252141956076e-03, 6.7722533054005813e-03,
          -1.0487238409319186e-03, -5.8680364936935072e-03,
          1.3482741249848812e-03, 3.3846707072352181e-03,
          3.6739088103907034e-03, -6.8406072529365956e-03,
          -3.3873808597633692e-03, 5.6485622904446624e-03,
          5.7784700588319989e-04, -4.2388089575544222e-03,
          -2.1634325702132129e-03, -6.2440907482939232e-03,
          3.3900168345025938e-03, 1.3474512062294033e-03,
          2.4553433552123929e-03, -3.8047771905304431e-03,
          6.3248728407336221e-03, 1.3005750626189792e-03,
          2.7396766291975664e-03, -3.0924517355258727e-04,
          4.1735045942099952e-03, 5.1340723327692539e-03,
          4.0361559537362710e-03, -3.6991293918150174e-04,
          -3.3036002345870224e-03, 5.7392177997588872e-03,
          -5.9519177761939409e-03, -1.1006325066739151e-03,
          2.1134990271445058e-03, -6.4991191951712934e-03,
          -2.8726106610473777e-03, 3.6170171158542109e-04,
          3.5322950484583272e-03, 2.6738293454231293e-03,
          3.2177325058985865e-03, -8.3266027078420814e-04,
          4.0181231605057295e-04, 4.4195473326631316e-03,
          -4.3388667006182251e-03, -3.0832590564038183e-03,
          2.6738807794626581e-03, 4.1221097177273529e-03,
          -2.8564669521901767e-03, -4.3335985519985919e-03,
          -5.6739148191240355e-03, 5.1382291656173031e-03,
          5.4663395112341355e-03, -6.0282234715633249e-03,
          -3.2691518897553723e-03, 2.4999610063326408e-03,
          5.6586765577623763e-04, -1.8080897950404195e-03,
          -6.6340416862505826e-03, -4.5447575453916164e-03,
          4.9925847554052102e-03, 5.9918995547541378e-03,
          -2.9597106251315194e-03, 5.0671085522875359e-03,
          -4.7004309563682053e-03, 4.1310930585549939e-03,
          -4.9512171993983467e-03, 5.1182635099278556e-03,
          -1.9582028471153770e-03, 4.4849924517341771e-03,
          4.4823736953848508e-03, -2.4717637089590747e-03,
          4.7340669328636937e-03, -3.3863301309609195e-03,
          5.1912644791115769e-03, 3.5402569600634704e-03,
          -3.6552628362756852e-05, -4.4876338146392504e-04,
          -4.7919102425184141e-03, -5.3612615210688504e-03,
          2.7934019889237875e-03, 6.3950147787582411e-03,
          2.6011378228418714e-03, -5.7972265307282998e-03,
          -3.5655741455863375e-04, -5.4045454776828509e-05,
          3.3409331825412524e-03, -5.8523909878113343e-03,
          2.9464514996831309e-03, 1.8211391695763428e-03,
          -2.3130973853756438e-03, -2.2592260580610638e-03,
          -3.0322560122451794e-03, -5.6978381648565739e-03,
          5.6072111022049641e-03, 1.3133280588588114e-03,
          6.2780621125649158e-03, -5.6454941078533305e-03,
          4.2803107254216427e-03, 4.0547925515478787e-05,
          1.5512379825007145e-03, 3.9271350754277491e-03,
          -5.5709421773070212e-03, 4.4686473320879726e-03,
          7.0054217591137614e-04, -1.1234029463701265e-03,
          2.9689284348383988e-03, 6.1103926737937127e-03,
          -3.1939384211964379e-03, -4.3464212588418209e-03,
          -3.8225299925395352e-03, -5.5627006743646347e-03,
          -1.0294771816513038e-03, -2.0130877376175801e-03,
          -7.0284605624451634e-04, 6.1228483347092509e-03,
          5.9620099437752644e-03, 6.7324010491009124e-03,
          2.3934986220964737e-03, -1.2638538882977391e-03,
          4.9155567797149668e-03, -1.5561429974438460e-03,
          -2.1885749492502873e-03, 1.6116786293772765e-03,
          -4.0548996795343947e-03, 2.8393628798304574e-03,
          -1.6585982822075931e-03, -4.4807437157860222e-03,
          -5.5223444946853060e-03, -3.4218452328245680e-03,
          2.1363482345609663e-03, 3.1724908509087229e-03,
          4.5370060325211712e-03, 5.6466635536057755e-03,
          -3.2739274443755713e-03, -2.3040575211855552e-03,
          5.8554989565643952e-03, 5.6623602368220931e-03,
          4.3259667153641530e-03, 9.4457508085382419e-04,
          3.3734309220151918e-03, 3.8329640540858329e-03,
          -8.3564533411891915e-04, -4.4231987251344470e-03,
          -2.1510306494370245e-03, 8.5403537245032650e-05,
          1.6569021241483622e-03, 2.7387616212705425e-03,
          8.8626299978517172e-04, 4.8936152318192327e-03,
          -6.2138348382406641e-03, 2.6055317246475788e-03,
          -1.9958544386351144e-03, 1.7640685589723213e-03,
          1.1891609342321895e-03, -1.8598501677786598e-03,
          4.4493691721933723e-03, 4.5295314686632877e-03,
          -3.1610965234286229e-03, -1.1692836093054272e-03,
          5.3228865066801542e-03, -5.7232541234927816e-03,
          4.6483275755850569e-03, 5.0992280320723334e-03,
          -5.3245574199173983e-03, 1.4307747679787337e-03,
          -5.2634200154889194e-04, -6.6653654549957272e-03,
          4.3540641100724316e-03, -6.6001708254614577e-03,
          1.2435659909349160e-03, 4.7658675440896442e-04,
          -5.1301339255029514e-03, 2.2432970230111975e-03,
          -3.3173498186211646e-03, -4.1752222595291717e-03,
          -4.4057549899107961e-03, 5.6257941793576302e-03,
          5.9192325303627918e-03, -2.8533168458556453e-03,
          -2.7434167734199199e-03, -2.2817720951350180e-03,
          4.9421452541604308e-03, 4.7113581227843258e-03,
          -2.4247860472120233e-03, 7.0304043571479159e-03,
          -6.1339923663287967e-03, -4.7795712170725889e-03,
          -4.8253773263391952e-04, -8.5815812209572376e-04,
          3.7055930869787754e-03, 1.4619891959396054e-03,
          -5.0842407198150360e-03, -5.1643961012793928e-03,
          -5.0328065792421310e-04, -4.2885718431341672e-03,
          -2.2002891598495956e-03, -5.9605868180758349e-04,
          -6.3710376995677991e-03, -1.2549088850900827e-03,
          -3.0428149517619800e-03, 1.8902301034842241e-03,
          -2.0762396680952724e-03, -2.7163322527829024e-03,
          -4.7538923586012173e-03, 5.2872406852064232e-03,
          -4.8796227010578447e-03, 1.1591127102132792e-04,
          -5.4214756428652248e-03, -3.4286109498504395e-03,
          -1.4381307799793224e-03, 6.5590849701048764e-03,
          6.2426133753991494e-03, -3.7997111609088504e-03,
          -6.0646601277896412e-03, -1.1027030713558509e-03,
          4.7533958802349338e-05, 2.9929653902728338e-03,
          2.1201332672252942e-04, 6.7606822538248323e-03,
          2.4689584587120408e-03, 4.6032467316816823e-03,
          -2.3517742162368089e-03, 2.2726713645441175e-03,
          -5.4287104716225039e-03, 2.5686878924023604e-03,
          -1.4347015534237652e-03, -7.0026321446558393e-03,
          -3.0698161855641573e-03, -5.2944093748380026e-03,
          7.9826008636604492e-04, 7.3846780550276673e-04,
          -3.3959468896989304e-03, -2.5011477004728312e-03,
          2.3982113830796283e-03, -2.4991219197761450e-03,
          -1.8954882264361044e-05, 5.5855011027316332e-04,
          -6.4247384831379491e-03, 4.5727130306819699e-03,
          -2.8739482962215481e-05, 1.2503791047368952e-03,
          6.8322285852765305e-03, -5.6974579732848333e-03,
          -1.1353370486427641e-04, 3.6774172237643782e-03,
          -4.7621263089175515e-03, 5.5699866143999006e-03,
          6.8570597153803719e-04, 4.2058223166038166e-03,
          -1.5292522549467103e-03, 6.2103567637342792e-03,
          5.1638541205413788e-03, -4.3628195981374965e-03,
          -5.1241763603098638e-03, 3.2066878555966482e-04,
          -5.6073792289832516e-03, -5.2557583097735758e-03,
          1.2458713600261729e-03, 1.4087348931254727e-03,
          5.6109355888201437e-03, -4.5927704811558794e-03,
          8.6624413065865323e-04, 2.1746105562671400e-03,
          3.2872141193607349e-04, -3.1827001294682214e-03,
          2.2629351956884102e-04, 4.8480742084229889e-03,
          -1.7398287951591114e-03, 5.2031332166211277e-03,
          1.7522898634765233e-03, -2.4378772552338665e-04,
          3.3300760398859760e-03, 3.2507054601607346e-03,
          4.8248853744301337e-03, 6.7806371561429987e-03,
          -3.5534044073647769e-03, -6.1122316227010341e-03,
          -1.6690985601592351e-03, -1.1979892841070504e-03,
          -6.0027139960745855e-03, 2.7211246726662384e-03,
          2.1532707484728936e-03, -2.4818575408466002e-03,
          -9.2176681322666393e-04, 5.6122242920226256e-03,
          -6.1196025686312977e-04, 2.2470358972424662e-03,
          3.5920158981213599e-03, 2.4835315828492062e-03,
          -2.1225719664502824e-03, 1.2170141842289860e-03,
          4.9146498292271124e-03, 5.1178124686576554e-03,
          6.2698667356208115e-03, -4.8928795299212615e-03,
          -6.0066285025280235e-03, -2.2298317253045108e-04,
          -5.4516394919343625e-03, 2.0188981770841289e-03,
          -1.6064479760157899e-03, -5.2986523507915070e-03,
          -3.9679902936489396e-03, 5.3729741065071460e-03,
          5.2358465165571353e-03, -4.6126750441865087e-03,
          5.9003466522550502e-03, -6.4211224111766470e-03,
          8.5001360350609183e-04, -1.4447571673517009e-03,
          3.8868479625101243e-03, 6.3352067675682775e-03,
          3.1057148685394260e-03, 4.2171055695767838e-03,
          4.0078452801875471e-03, -1.8451846785843054e-03,
          1.6847012578020224e-03, 2.9394384240594615e-03,
          2.6204418008227790e-03, -7.1242753200284853e-04,
          9.5690317816611082e-04, -1.7921709879317621e-03,
          6.0924517869673442e-03, 4.2351959298176480e-03,
          -3.6262608154241059e-03, -5.1242671064365966e-03,
          -1.0941009402615244e-03, 6.0136620944851510e-03,
          8.1990509139939782e-04, -4.0379597671326411e-03,
          4.4153561699260147e-03, 4.4532451487647885e-03,
          -6.0935224752093264e-03, -3.2971195990486573e-03,
          -1.0895042705914632e-05, 2.7192727331527169e-03,
          -4.0233775808786194e-03, 1.3932618679801353e-03,
          -3.3090651115099006e-03, 4.7692935773812704e-03,
          5.7016460979941773e-03, -1.8510594711212611e-03,
          1.0995264583600907e-03, -4.8749231006254209e-03,
          2.2680842130931700e-04, 2.9621752459934600e-03,
          1.4259702824347036e-03, 6.8062547860165091e-03,
          5.0963438733547519e-03, 5.2213756618397639e-03,
          -5.5103503820402222e-03, -4.8237283130952574e-03,
          3.6839457541666433e-03, -3.2527140364223094e-04,
          -4.6098963088699423e-03, -7.9758935001537998e-04,
          2.4578516524509232e-03, 2.3504736294993134e-03,
          1.4786767676074316e-03, -4.9182856651703720e-04,
          3.6019284324228409e-03, -4.1894403141938879e-03,
          2.6293609502197621e-03, -3.2726643360845619e-03,
          3.8272960610725320e-03, 6.2889236476271681e-04,
          -1.8067188131904962e-03, -1.9434933732915896e-03,
          3.5011361045514328e-03, -5.8752535834264248e-03,
          6.5312570589021275e-03, 4.5315839047289520e-03,
          3.1267714742341541e-03, -4.4258483263931690e-03,
          3.7525603225183746e-04, 2.3533033117390634e-04,
          5.7657068258573771e-03, -6.6286166334433069e-03,
          1.7830331108179942e-03, -2.5681526144380293e-03,
          -5.4631157228345129e-03, 4.7229634820473865e-03,
          4.9624659442555185e-03, -4.3439714812062028e-03,
          4.3578517803794887e-03, 1.0638714934235807e-03,
          4.0577107657413574e-03, -4.9198451370488228e-03,
          -2.8026359365776851e-03, -4.4872952795620884e-04,
          3.4041756350326516e-03, 5.9858594027769616e-03,
          -6.0557970669269994e-03, -2.0907076631176548e-04,
          5.1326280691208238e-03, 6.2135556665154721e-03,
          -5.0988157907730534e-03, -2.0671104066901564e-03,
          2.7577278687700674e-03, 1.9122115590908700e-03,
          6.3659378045656228e-03, -6.9809662534249181e-04,
          3.8944762404918279e-03, 2.4061997516464204e-03,
          -2.1115598403498089e-05, -3.4357821311922919e-03,
          3.4434815922216784e-03, 1.5978000784172424e-03,
          2.8680900402501771e-03, 2.2366050497369637e-03,
          3.1096565931279440e-03, -6.8232993892483130e-04,
          -5.1761160602842738e-03, 7.6423526261006601e-04,
          4.0939266932028956e-03, 4.0703668431555451e-03,
          -2.1549870409363911e-03, 5.4520530104872388e-03,
          -3.0082670212250176e-03, 6.0112260120683799e-03,
          -1.1421429009764990e-03, 6.7200764897069041e-04,
          5.9513796792556722e-03, 2.4332255043350141e-03,
          3.0379575439359631e-03, 5.4416561928918134e-04,
          -4.5075993168086454e-03, -5.7280448327097491e-03,
          5.7568268920246803e-03, 3.0928886584788879e-04,
          4.8252005436763635e-03, 3.1411381610508544e-03,
          5.3837569679342015e-03, -5.3540733887990789e-03,
          6.5947475764002977e-04, 6.1121507350244927e-04,
          -2.3249687342011827e-03, 1.7485230116974304e-03,
          -1.4247701893009407e-03, -2.5549376854243537e-03,
          6.1880410784296395e-03, 1.5935447156338687e-03,
          -2.0640525086025054e-03, -5.2699612034049935e-03,
          -5.0872827357391149e-03, -5.9552085638614537e-04,
          6.4502817033617122e-03, -3.3288815768451139e-03,
          -2.6557890369355757e-03, 4.2708500897744106e-03,
          -2.1112255264483333e-03, -4.0712915459042822e-03,
          2.3698418203382068e-03, -1.5967796713253993e-03,
          2.4059168358292789e-07, 4.4475709692521738e-03,
          -6.2493638602107932e-03, 2.5100090925705351e-03,
          -1.8115697631203424e-03, 6.0001422406764223e-03,
          1.5566228945131976e-03, 2.7395741584788753e-03,
          -7.2027571920131952e-04, 6.1025388724533424e-03,
          -3.1244494809755234e-03, -3.4662513208755419e-03,
          1.7462298517938711e-03, -5.8606649570881360e-03,
          4.7680726708285078e-04, -4.5159224933697950e-03,
          2.4113505435339137e-03, 4.2213105546002804e-03,
          2.0195355070299764e-03, -2.9425664856420498e-03,
          5.1422142885027755e-03, -5.2558814221864598e-03,
          -1.6840894993936546e-03, -2.7922013942144560e-03,
          -1.4426825178720823e-03, -6.0322391600819546e-03,
          -2.9492325168528348e-03, 5.4509580472902721e-03,
          5.2667734073016999e-03, 4.2343001484728493e-03,
          2.1709626825856766e-03, -2.7816146433453353e-03,
          5.3064477045008203e-03, 6.1241311335665464e-03,
          1.4807088693102762e-03, 1.4569980173118192e-03,
          5.7752373823623778e-03, -2.2952795853646330e-03,
          3.3305510903829760e-03, 6.2307356549505637e-03,
          -3.9005071349928417e-03, 2.9253086033515082e-03,
          -1.0300143646925471e-03, 6.0710250148957837e-04,
          2.1594158583005544e-03, -5.0053832369574931e-03,
          6.6487207228475642e-03, 5.6398668413276823e-03,
          2.3676069838305218e-03, 2.8038533703515041e-03,
          -3.8812880898193612e-03, -1.5098970160983671e-03,
          5.5109089625972538e-03, 1.1765445729305718e-03,
          2.3729309085490707e-03, 7.3025084959376686e-04,
          -4.6595160826027431e-03, 5.4698251183849834e-03,
          -1.4273496892826653e-03, 2.6592129418198814e-03,
          5.0538958270246667e-03, 2.9015884703578170e-03,
          1.0651773100938057e-03, -5.2703716063589208e-03,
          3.1225527363575871e-03, 1.8489363780419430e-04,
          -1.1384349115392686e-03, -1.9106782947557216e-03,
          1.1154614881537929e-03, -6.4161680430796985e-03,
          -5.2873341729774591e-03, 3.0280981164999103e-03,
          -1.9049386399800652e-03, -2.3873123300545231e-03,
          1.5652041281649959e-03, 2.3225840386252939e-03,
          -2.5133780029083326e-03, 2.1185318634908304e-03,
          -6.3691962231025607e-04, -5.6316112334082917e-03,
          -7.1103987192274538e-04, -5.0653197379898840e-03,
          3.8885234215587719e-03, -1.4961259608047756e-03,
          -5.8437904412290183e-03, 6.0190369455356838e-03,
          -6.4779216976052489e-03, -2.0453176461356381e-03,
          -1.8686673845896694e-03, 6.0004455837528291e-03,
          -2.9240620081233972e-03, -1.2590969946402232e-03,
          -6.7997106756553696e-04, -5.0637176266372149e-03,
          -4.2017348389549874e-03, 3.0405693355142049e-03,
          -5.2342933752371175e-03, 6.1589495486575668e-03,
          3.7312663871354561e-03, 3.9551548913928361e-03,
          -3.0580598020903071e-03, -1.0427156257279708e-03,
          -1.1835330889773728e-03, -4.0251528730351534e-03,
          2.7543068763668430e-03, -3.1661320986099144e-05,
          -1.4702821514291299e-03, 5.3102857059037596e-03,
          -5.5060942624444806e-03, -3.1779598913089309e-03,
          -5.2398726206331556e-03, -3.6608224039073088e-03,
          5.4411447155527188e-03, 3.1787648345648267e-03,
          -2.3270236524993273e-03, 5.3881997142712496e-03,
          5.5104670099509461e-03, 9.8588826192563101e-04,
          8.1212660962361616e-04, 8.5428802069842759e-04,
          -5.6680223564540659e-03, 3.4474359080616515e-03,
          1.4039809657806527e-03, -1.2593021999240334e-03,
          2.8888865777340817e-04, -4.7830829258365421e-03,
          -3.3315065923407890e-03, -2.6363887289779248e-03,
          -4.3222352548541237e-03, -2.0861556600981646e-03,
          6.8024612686960870e-04, -1.3487102556923472e-03,
          3.0177632037496432e-03, -2.9618617918195801e-03,
          2.5819815928648090e-03, -4.4363257843508868e-03,
          2.3657973245415583e-03, -1.9821553335295345e-03,
          3.8510256603065413e-03, -2.3424853857582106e-03,
          4.4255815116712822e-03, 2.7600704817836298e-03,
          6.5019684007887532e-03, 4.1419647708184417e-04,
          2.1809783539406178e-03, -3.8956608669311831e-03,
          4.3863374556644096e-03, -3.5484679716235347e-03,
          2.1078921806612959e-03, -4.7784733431618638e-04,
          -4.2803072870151483e-03, -2.9850276860508276e-03,
          -4.7395089880056408e-03, 5.2065590122112497e-03,
          -4.4071636199640813e-03, -5.5560088530416680e-03,
          -4.2183791542912174e-03, -1.0233663243506702e-03,
          -2.7716218314638213e-04, 2.6799422258243387e-03,
          -5.7462404777830411e-03, -2.2645750321388168e-03,
          -4.5519697504949963e-04, -1.7532301308677257e-03,
          -5.3558189007496060e-04, 5.5835317244735255e-03,
          -2.8879714315368627e-03, -4.5254223940456662e-03,
          -3.5638249636752366e-03, -3.3434100876355856e-03,
          9.6495266760110573e-04, 1.9627034082580312e-05,
          -8.5341140327366868e-04, 6.7688865875746356e-04,
          -3.9193073466129357e-03, 4.5353435744583063e-03,
          -3.9708592148447706e-03, 6.0069176499331373e-03,
          5.2919588872494452e-03, 4.7680877435147600e-03,
          -3.4859239614806563e-04, -2.2925280618455017e-03,
          -3.5568456504301896e-03, 5.4597283740745028e-03,
          -3.9278274114334828e-03, 1.2681442318781559e-03,
          3.3133932484841039e-03, -6.3843458601484234e-03,
          -1.4119550150865300e-03, -5.2426710313916653e-03,
          -4.3054355808834904e-03, -5.3165391086796715e-03,
          -2.7840995979255120e-03, -3.8217922787618034e-04,
          -4.0370597417488174e-04, -5.1434742845740643e-03,
          -6.2484560980471081e-03, 6.7221840171747035e-03,
          -2.0979608678208207e-03, -6.5624082734256045e-04,
          4.2128145863294152e-03, 5.6246311566909594e-03,
          -4.9486820051478433e-03, -5.5859983543624396e-03,
          -6.4013468620449966e-03, 5.1676431426314357e-03,
          1.5669213925605810e-03, 2.3828920512663520e-03,
          5.4454841280842286e-03, -1.9155118104931167e-04,
          -2.6105002385945551e-04, 1.1230248554090672e-03,
          -2.5470776528281947e-03, -2.6114439546091458e-03,
          5.9266390530052339e-03, 6.2555950120177792e-04,
          -9.0048943812633120e-04, 6.2755209134807213e-03,
          5.8409149041494133e-03, 2.1430011440971737e-03,
          -5.4576741944961683e-03, 4.2550444529470995e-03,
          -2.3272961455859009e-03, 6.3542370406318262e-04,
          1.7910308389728936e-03, -3.1902772961962607e-03,
          -9.3952996761965132e-04, -3.3819381781459946e-03,
          2.4090547699755086e-03, -5.4247975564354328e-03,
          -3.2900110050290807e-03, -6.1068779457598054e-05,
          -4.5805316959785620e-04, 4.3553520302540005e-03,
          -4.0075198339562974e-03, -1.8201921605827593e-03,
          -8.9725705349117041e-04, -2.9783621386929733e-04,
          5.3576203865180047e-03, 2.1521067881560864e-03,
          3.4154764074248436e-03, -3.7023445168840401e-03,
          6.7033407105115473e-04, -2.5913678936411891e-03,
          1.2287397678182793e-04, -5.2973136706125398e-04,
          4.4001363700509541e-03, -1.5397937659739718e-03,
          -3.2851396063365602e-03, -2.7048989890416288e-03,
          -3.7510216035482663e-03, -3.0496658910938038e-03,
          2.0533198760890707e-03, 2.4046518057611842e-03,
          -6.5675582594631613e-03, -4.4066611481445583e-03,
          -5.8450017515127373e-03, 3.5246192190929804e-03,
          -3.0554663184673543e-04, 3.8841941780141470e-04,
          -3.7764868956887288e-03, 2.6072520207198464e-03,
          -5.3616609896921354e-03, -4.1042230491951329e-03,
          2.8678626734436195e-03, -6.4864341766692210e-03,
          1.9872082744367501e-03, 3.8713816536311934e-04,
          6.7391929853391755e-03, -1.2696378779527241e-03,
          1.2554403803102696e-03, -6.2918912379563534e-03,
          1.5441598695406032e-03, -4.3665617236963074e-03,
          2.2380538535815035e-03, 2.8041079498074811e-03,
          -5.2201660537433397e-03, -3.1661569766480869e-03,
          -2.4042952767924209e-03, 4.1286154909048866e-03,
          1.0088074982919499e-04, 2.0605727624600600e-03,
          -4.6438681624077259e-03, -1.3943547530735089e-03,
          1.0270785866912507e-04, -4.7126224645074721e-03,
          -5.2310030489687792e-03, -3.0063183437107825e-03,
          -4.3993204140782265e-03, -4.0591936356235946e-03,
          2.4685766254329682e-04, 9.8273467498440374e-04,
          -3.6465912739289080e-03, -4.7444030463957981e-03,
          -2.3810274701062842e-03, -4.1443520325099427e-04,
          2.1549237118626127e-03, -9.3669819743312001e-04,
          -6.1388402640921089e-03, -5.2584770502795393e-03,
          6.2819055340933242e-03, 3.7857624116815027e-04,
          -1.2392391628475032e-04, 2.3546622154370172e-03,
          3.7993335807504735e-03, -6.5289708068042348e-03,
          -6.2636284784092005e-03, -5.3866708104231900e-03,
          6.1762564067624585e-03, -4.3588291276459162e-03,
          -5.2668199652830157e-03, 4.0696975062659005e-03,
          -5.1370053652800103e-03, -3.2325862452299036e-03,
          -5.5398930350413836e-03, 4.4786500121118981e-03,
          -6.2739759638193544e-03, 1.2227078900649867e-03,
          -6.8309960489959206e-04, 3.1266513572358163e-03,
          -6.1050818981377994e-03, -4.2300382665932789e-03,
          -3.1826171603365175e-03, -5.9583283127915285e-03,
          3.0053818473155546e-03, -3.3012196970944110e-03,
          3.6607207749451589e-03, -8.8088911226110996e-04,
          6.1754949307343495e-04, -1.1734561733150095e-03,
          -8.7727930424326287e-04, 4.2656008159452068e-03,
          1.9631402340991558e-03, -1.3977838319777247e-04,
          -1.5684849354991120e-03, 1.9430710433586637e-04,
          5.9801611226312466e-03, -3.2201869152368458e-03,
          -3.2201734912043149e-03, 3.5908538942137401e-03,
          2.7715506924151029e-03, -4.1337311227158703e-03,
          -2.9296317607270016e-03, -1.4508162256021645e-03,
          -8.4788951588858803e-04, -3.5915658746234940e-03,
          -3.6974442135768982e-03, -6.6933651005108849e-03,
          -1.1575264875596275e-04, 5.2683710332799881e-03,
          5.3003373772529446e-03, -2.8100398856335559e-03,
          4.3231282594293095e-03, 2.9904798821970419e-04,
          3.3970127455468916e-03, -1.9050629706460118e-03,
          9.6669900623741749e-04, -6.3955481940309172e-03,
          5.3264469992028137e-03, 3.4841386374763633e-03,
          -4.7698302612634276e-03, 5.4982026882074821e-03,
          -1.2012940068139703e-03, 1.1412075951019473e-03,
          3.5553970010478030e-03, -3.3739374799126188e-03,
          5.8646204157793260e-03, 4.6934237895082453e-04,
          2.0321376684593450e-03, 6.0687488815547525e-03,
          5.9104372300557437e-03, -5.1555793330031133e-03,
          5.8115870582439114e-03, 7.0946191068739367e-03,
          -3.5444156638576125e-03, 6.7285678014959230e-03,
          3.2243840007084561e-03, 3.5366916644423132e-06,
          1.7271898316137846e-03, -9.4135182810670419e-04,
          -1.5447046163728118e-03, -3.6697505036304970e-03,
          -3.4920583054743513e-03, -2.2680972568856015e-03,
          5.3728555444189979e-03, 9.7638564654538090e-04,
          -5.5537081165108375e-03, 3.7129858549226069e-03,
          3.3821550814589858e-03, 5.7978531678649749e-03,
          -5.0637465738360699e-03, 2.7571510453110602e-03,
          1.7175534754728570e-03, 5.9143872866780755e-03,
          -1.8501673942353559e-04, -3.4549527850598716e-03,
          -5.4749351208434500e-03, 5.6957781706980090e-03,
          5.0665672277938082e-03, -4.4325308996769463e-03,
          2.0487203131781722e-03, -4.1169039365586794e-03,
          3.0111877701353928e-03, -5.0665324223580588e-04,
          -3.3801012442033186e-05, -1.1333841421877343e-03,
          -1.0156240193983379e-03, 4.9057410493576958e-03,
          4.1281934470129376e-03, 5.2975132367594191e-04,
          -2.4743341262021138e-03, 6.2250778236046028e-03,
          1.3619849240812912e-03, -1.2641974467027530e-03,
          -2.0207986297978743e-03, 2.9347910764108052e-03,
          4.8891415209451937e-03, 5.3212391783335903e-03,
          -1.4911131385122131e-03, 5.5931288020458136e-03,
          2.1571498213526765e-03, -3.9391427853123061e-03,
          -1.0676220466355425e-03, -5.7605362836350973e-03,
          6.0139516577072663e-03, -1.6875758209580602e-03,
          4.3250366376322629e-03, -6.8330165401482091e-03,
          3.6695041661627598e-03, 1.2614039237034190e-03,
          -6.1015313064700786e-04, -1.0188794500908930e-03,
          -6.6088082435670067e-03, 6.3953006557801910e-03,
          -6.0008410570148215e-03, -5.6076480779106098e-04,
          3.4490055615808042e-03, 8.7807906097594232e-04,
          2.9454707895088241e-03, 1.9185449873291172e-03,
          3.7157448104576910e-03, 6.4764143912137227e-03,
          -2.0667751343236423e-03, -4.8670655977335739e-03,
          -5.3769193639121356e-03, -2.5755602694887436e-03,
          2.6458944260790806e-03, -5.9562848670282496e-03,
          4.2936259239795367e-03, 3.2823968897103162e-03,
          7.3413094667024886e-04, -1.5705798209831806e-03,
          -6.7301017796206949e-03, -3.7259905512259744e-03,
          1.3109074421453679e-05, 2.1261867175310606e-03,
          1.4793747096053106e-03, -2.6382009949001174e-03,
          -4.7324411199299926e-03, -1.9898048309821077e-03,
          -5.9248225944941802e-03, 2.7368439807990419e-03,
          -5.5934343360800722e-03, 6.6671500103620317e-03,
          -2.4873131902961938e-03, 4.6656575391879201e-03,
          1.2262900763633983e-03, 2.0236664332136957e-03,
          2.6225385116613945e-03, 5.4882479229846470e-03,
          5.6503626612171461e-03, 3.6854237138890284e-04,
          3.4665313889460161e-03, 1.9829054463486435e-03,
          -3.2478692559198327e-03, 3.5043406065182006e-03,
          4.8506485726096003e-03, 3.7194557748820048e-04,
          2.1015536905981415e-03, -1.3983795661954149e-03,
          5.7373070572189945e-05, -5.6723611689419714e-03,
          6.3270434398127410e-03, -6.9914694408928954e-05,
          1.8262841912824374e-03, -6.1266440627559858e-03,
          3.0541762128584436e-03, 2.7285600334412438e-03,
          -7.2693972957366137e-04, -1.6491924178193250e-03,
          -8.6630308692211674e-05, 4.1035562662068209e-03,
          -4.8106764538173065e-03, 4.5245862552418690e-03,
          -5.7760188545787350e-03, 6.0781009789412747e-03,
          -3.5684491229920701e-03, -4.1816713998273840e-04,
          1.5619865165021980e-03, -2.8713616259115234e-03,
          -4.1017624337974696e-04, 2.5590801385241987e-03,
          3.6673826281684177e-03, 3.4545834805586240e-05,
          -1.9897705711237070e-03, -4.1536279413662575e-03,
          2.0614349640992223e-03, 1.7480772181858268e-03,
          3.1198826692604418e-03, -1.3346744878441575e-03,
          -6.8291678318912086e-04, -3.0775847165252913e-03,
          -3.7575444415308975e-04, 5.3568813514101961e-03,
          4.3039024788473629e-03, 4.7517788838304289e-03,
          -5.7108934284602940e-03, -1.7402603714579163e-03,
          -3.7944903200155260e-03, 5.3352024596500887e-03,
          -1.3505674622912491e-03, -6.9475404331346470e-04,
          9.7992468310363081e-04, -3.6872495147756098e-03,
          5.3123152337855811e-04, -1.7346387132033438e-04,
          -4.2776542270008778e-03, -5.5634585120831687e-03,
          -6.2089827051569910e-03, -4.3995763369044661e-05,
          4.5404084081246739e-03, -4.3481118070125930e-03,
          -3.8690495427602762e-03, -4.4069831557955132e-04,
          -2.3010530281016989e-03, 2.5085099286733109e-03,
          -1.0573781546011902e-03, 4.0775096605248909e-03,
          5.5995435950578982e-03, -2.4231122375135013e-03,
          -6.0840635010534828e-04, -2.0451816860195870e-04,
          -1.5603053678129447e-03, 1.3928025243785200e-03,
          -2.7814057979108583e-03, -3.3949193672194768e-03,
          4.5042617104451496e-03, 4.9391093077567356e-03,
          -5.0887957822004959e-04, 4.8845619473965483e-03,
          1.8803160873907261e-03, 1.8768876897472906e-03,
          -6.3740893760036972e-03, 1.4687435225407661e-03,
          -5.2946688990460865e-03, -1.0063849201824731e-03,
          3.5841882595433320e-03, -3.2800434899618218e-03,
          2.8009261479014619e-03, -2.1301397316113007e-03,
          -6.4709849333209361e-03, -6.5017814989215585e-03,
          7.2493042996723156e-04, 6.7144791549191016e-03,
          1.8403780733942815e-03, -4.8010756801443377e-03,
          6.7397663493621229e-03, 1.3391116367493861e-03,
          4.1320798432774621e-03, -5.3267825712630841e-03,
          4.8733807708265103e-03, -1.2741913571271025e-03,
          -5.7216222432787667e-04, 5.2267467910228091e-04,
          4.7870313144792601e-03, 2.0934080901957957e-04,
          -4.2732427512563861e-03, -3.1113100200233388e-03,
          4.8877210676723419e-03, -1.3528745988957318e-03,
          -2.7821079564652879e-03, 8.4978251471012911e-04,
          5.3817275336328066e-03, 5.1324143235551437e-03,
          2.0867967346985166e-03, 6.8165734358607124e-03,
          -5.0041602282515293e-03, 5.1827471052802410e-04,
          5.3453875031409560e-03, -3.8666744468128137e-04,
          -4.0956610862380545e-03, -3.9848046559681459e-03,
          -4.7684693949659679e-03, 6.3824613286258200e-03,
          6.2944634577773535e-03, 1.4974316932152688e-03,
          -3.0147957269718497e-03, 5.5255141684291522e-03,
          4.9713591000957475e-03, 2.4722781854547623e-03,
          -4.2617043249500225e-03, 2.6081292890182215e-03,
          -4.2327623747742864e-03, 1.2003327126021894e-03,
          3.1476464220537310e-03, 2.2619370256517974e-03,
          -1.6421836546459186e-03, -8.9753682489867638e-04,
          3.5709376414028685e-03, 4.6340415991251346e-04,
          -2.0661815488647347e-03, 1.4086298208215329e-04,
          2.4609344020478681e-04, 4.1938054475240596e-03,
          6.9724265592252801e-03, -3.5766739671016664e-03,
          -4.0016468656092026e-03, -4.5345403960087910e-03,
          -3.7783455119786552e-04, -2.2695379061910569e-03,
          -6.3542906592357917e-05, 5.4938646913243131e-03,
          4.8484046674943657e-04, 6.2764983859360762e-04,
          -4.1322537244933479e-03, 4.6597295488433393e-03,
          -3.3103303132967651e-03, -2.9649078844031459e-03,
          1.1547741368087225e-03, -3.3731676781999210e-03,
          -3.5508273042388293e-03, 5.8525403547848528e-04,
          3.9384480396905683e-03, 5.3450629571977519e-03,
          -6.3102657683707418e-03, -5.2455287526930374e-03,
          -3.6051214214769560e-03, 5.4392352720969003e-03,
          5.0180216226932209e-03, 3.5359102383269460e-03,
          -8.6550801979909243e-05, 1.3537226460126135e-03,
          -1.6459872509012594e-03, 4.2996641148806787e-03,
          -5.5024832036385425e-03, -3.0455186844281670e-03,
          5.2078118445831800e-03, -4.7897241979836542e-03,
          -4.7133194032452927e-03, -4.8391102335344242e-03,
          3.3257433899564291e-03, -4.7965851259344060e-03,
          -3.5267708499332113e-03, -1.7315702119571747e-03,
          1.4057476102137035e-03, 1.8327771371365836e-03,
          4.5530220940373750e-04, -4.3117337220028784e-03,
          3.8202981415773941e-03, -3.0115126629893449e-03,
          2.2411399157181251e-03, 4.2802695141122993e-03,
          2.8319242361329876e-05, -3.3040671101255588e-03,
          -1.8359711843211478e-03, -6.7754664080886115e-03,
          -5.1060802154668855e-03, -2.1097428860729220e-03,
          4.1198681924820308e-03, -4.6068512950654247e-03,
          4.2781382519869971e-03, 4.8040500893590989e-03,
          4.6127870869193391e-03, 3.5278750577184691e-03,
          -2.6439793838021856e-03, 1.9451313019980506e-03,
          -4.8833020166627527e-03, 6.6872428375749117e-03,
          -2.1067954005142063e-03, 5.8500696383531926e-03,
          4.2419915375726432e-03, 1.6300884510148550e-03,
          -3.2385479018162606e-03, 2.1958006806671810e-03,
          -5.4216309520131300e-03, 2.3099856645806305e-04,
          -1.4128116505664609e-03, 1.4250863721791711e-03,
          -3.3508913879628341e-03, 3.4058109771470738e-03,
          -5.9760572476174282e-03, 6.5741731957619917e-03,
          -3.8591275764952851e-03, 4.0524191917256785e-03,
          -4.9877315177386432e-03, 2.6491899821891626e-03,
          2.1987520319607518e-03, -6.6890474070058952e-03,
          -5.8427334647160670e-03, -2.7208146233634869e-03,
          -6.2270530145360613e-03, 3.2797107185358978e-03,
          -8.1591962569103654e-04, 4.7422608467722468e-03,
          -2.1814193460322393e-03, 4.9335160127009468e-03,
          -6.4084199056829777e-03, -1.1313864579388789e-03,
          -3.1883615073159243e-04, -4.4421602506161699e-03,
          -9.0940720990700333e-04, -4.5080036950079514e-03,
          -5.4347247373165881e-03, 2.2776818839692414e-04,
          5.1744338675159176e-03, -1.7074380856649883e-03,
          -2.8835947583522852e-03, -6.1611959459166908e-03,
          -3.0843928349741682e-04, 5.9400440823830425e-03,
          -2.1394244130238291e-03, -2.9458516860726364e-03,
          -1.3761664454351207e-03, 4.2130854018864877e-03,
          1.0223614086462133e-03, -5.9599991880046159e-03,
          -5.6064241030638140e-03, 1.9644206455888711e-03,
          3.1569084288789280e-03, -3.6712776669197847e-03,
          6.0045407648389457e-03, -5.9646888176364101e-03,
          1.1536680085370450e-03, 4.3907111519505540e-03,
          -3.4430611818655550e-03, 1.9355711952525573e-04,
          -1.4008599742477293e-03, 4.4853812484498398e-03,
          5.9118548794062017e-03, 6.0890870491081116e-03,
          -2.3685365584157785e-03, 2.3805807731416811e-03,
          1.8456941003462265e-03, -5.4946607132450405e-03,
          5.2195275444211751e-04, 1.6571647640843800e-03,
